Language model created by QuickLM on Tue Oct 21 05:16:00 EDT 2014
Copyright (c) 1996-2010 Carnegie Mellon University and Alexander I. Rudnicky

The model is in standard ARPA format, designed by Doug Paul while he was at MITRE.

The code that was used to produce this language model is available in Open Source.
Please visit http://www.speech.cs.cmu.edu/tools/ for more information

The (fixed) discount mass is 0.5. The backoffs are computed using the ratio method.
This model based on a corpus of 51 sentences and 53 words

\data\
ngram 1=53
ngram 2=102
ngram 3=51

\1-grams:
-0.7782 </s> -0.3010
-0.7782 <s> -0.2218
-2.4857 会客模式 -0.2218
-2.4857 低头 -0.2218
-2.4857 你叫什么名字 -0.2218
-2.4857 你好 -0.2218
-2.4857 停止 -0.2218
-2.4857 全关模式 -0.2218
-2.4857 关灯 -0.2218
-2.4857 关电视 -0.2218
-2.4857 关空调 -0.2218
-2.4857 关窗帘 -0.2218
-2.4857 关窗户 -0.2218
-2.4857 关风扇 -0.2218
-2.4857 制冷 -0.2218
-2.4857 制热 -0.2218
-2.4857 前进 -0.2218
-2.4857 去充电 -0.2218
-2.4857 右转 -0.2218
-2.4857 后退 -0.2218
-2.4857 向右 -0.2218
-2.4857 向右转 -0.2218
-2.4857 向左 -0.2218
-2.4857 向左转 -0.2218
-2.4857 回家模式 -0.2218
-2.4857 左转 -0.2218
-2.4857 开灯 -0.2218
-2.4857 开电视 -0.2218
-2.4857 开空调 -0.2218
-2.4857 开窗帘 -0.2218
-2.4857 开窗户 -0.2218
-2.4857 开风扇 -0.2218
-2.4857 影院模式 -0.2218
-2.4857 我爱你 -0.2218
-2.4857 抬头 -0.2218
-2.4857 晨起模式 -0.2218
-2.4857 机器管家 -0.2218
-2.4857 用餐模式 -0.2218
-2.4857 看手势 -0.2218
-2.4857 睡眠模式 -0.2218
-2.4857 离家模式 -0.2218
-2.4857 自动 -0.2218
-2.4857 走开 -0.2218
-2.4857 起夜模式 -0.2218
-2.4857 跟我走 -0.2218
-2.4857 过来 -0.2218
-2.4857 送风 -0.2218
-2.4857 除湿 -0.2218
-2.4857 静音 -0.2218
-2.4857 音量减 -0.2218
-2.4857 音量加 -0.2218
-2.4857 频道减 -0.2218
-2.4857 频道加 -0.2218

\2-grams:
-2.0086 <s> 会客模式 0.0000
-2.0086 <s> 低头 0.0000
-2.0086 <s> 你叫什么名字 0.0000
-2.0086 <s> 你好 0.0000
-2.0086 <s> 停止 0.0000
-2.0086 <s> 全关模式 0.0000
-2.0086 <s> 关灯 0.0000
-2.0086 <s> 关电视 0.0000
-2.0086 <s> 关空调 0.0000
-2.0086 <s> 关窗帘 0.0000
-2.0086 <s> 关窗户 0.0000
-2.0086 <s> 关风扇 0.0000
-2.0086 <s> 制冷 0.0000
-2.0086 <s> 制热 0.0000
-2.0086 <s> 前进 0.0000
-2.0086 <s> 去充电 0.0000
-2.0086 <s> 右转 0.0000
-2.0086 <s> 后退 0.0000
-2.0086 <s> 向右 0.0000
-2.0086 <s> 向右转 0.0000
-2.0086 <s> 向左 0.0000
-2.0086 <s> 向左转 0.0000
-2.0086 <s> 回家模式 0.0000
-2.0086 <s> 左转 0.0000
-2.0086 <s> 开灯 0.0000
-2.0086 <s> 开电视 0.0000
-2.0086 <s> 开空调 0.0000
-2.0086 <s> 开窗帘 0.0000
-2.0086 <s> 开窗户 0.0000
-2.0086 <s> 开风扇 0.0000
-2.0086 <s> 影院模式 0.0000
-2.0086 <s> 我爱你 0.0000
-2.0086 <s> 抬头 0.0000
-2.0086 <s> 晨起模式 0.0000
-2.0086 <s> 机器管家 0.0000
-2.0086 <s> 用餐模式 0.0000
-2.0086 <s> 看手势 0.0000
-2.0086 <s> 睡眠模式 0.0000
-2.0086 <s> 离家模式 0.0000
-2.0086 <s> 自动 0.0000
-2.0086 <s> 走开 0.0000
-2.0086 <s> 起夜模式 0.0000
-2.0086 <s> 跟我走 0.0000
-2.0086 <s> 过来 0.0000
-2.0086 <s> 送风 0.0000
-2.0086 <s> 除湿 0.0000
-2.0086 <s> 静音 0.0000
-2.0086 <s> 音量减 0.0000
-2.0086 <s> 音量加 0.0000
-2.0086 <s> 频道减 0.0000
-2.0086 <s> 频道加 0.0000
-0.3010 会客模式 </s> -0.3010
-0.3010 低头 </s> -0.3010
-0.3010 你叫什么名字 </s> -0.3010
-0.3010 你好 </s> -0.3010
-0.3010 停止 </s> -0.3010
-0.3010 全关模式 </s> -0.3010
-0.3010 关灯 </s> -0.3010
-0.3010 关电视 </s> -0.3010
-0.3010 关空调 </s> -0.3010
-0.3010 关窗帘 </s> -0.3010
-0.3010 关窗户 </s> -0.3010
-0.3010 关风扇 </s> -0.3010
-0.3010 制冷 </s> -0.3010
-0.3010 制热 </s> -0.3010
-0.3010 前进 </s> -0.3010
-0.3010 去充电 </s> -0.3010
-0.3010 右转 </s> -0.3010
-0.3010 后退 </s> -0.3010
-0.3010 向右 </s> -0.3010
-0.3010 向右转 </s> -0.3010
-0.3010 向左 </s> -0.3010
-0.3010 向左转 </s> -0.3010
-0.3010 回家模式 </s> -0.3010
-0.3010 左转 </s> -0.3010
-0.3010 开灯 </s> -0.3010
-0.3010 开电视 </s> -0.3010
-0.3010 开空调 </s> -0.3010
-0.3010 开窗帘 </s> -0.3010
-0.3010 开窗户 </s> -0.3010
-0.3010 开风扇 </s> -0.3010
-0.3010 影院模式 </s> -0.3010
-0.3010 我爱你 </s> -0.3010
-0.3010 抬头 </s> -0.3010
-0.3010 晨起模式 </s> -0.3010
-0.3010 机器管家 </s> -0.3010
-0.3010 用餐模式 </s> -0.3010
-0.3010 看手势 </s> -0.3010
-0.3010 睡眠模式 </s> -0.3010
-0.3010 离家模式 </s> -0.3010
-0.3010 自动 </s> -0.3010
-0.3010 走开 </s> -0.3010
-0.3010 起夜模式 </s> -0.3010
-0.3010 跟我走 </s> -0.3010
-0.3010 过来 </s> -0.3010
-0.3010 送风 </s> -0.3010
-0.3010 除湿 </s> -0.3010
-0.3010 静音 </s> -0.3010
-0.3010 音量减 </s> -0.3010
-0.3010 音量加 </s> -0.3010
-0.3010 频道减 </s> -0.3010
-0.3010 频道加 </s> -0.3010

\3-grams:
-0.3010 <s> 会客模式 </s>
-0.3010 <s> 低头 </s>
-0.3010 <s> 你叫什么名字 </s>
-0.3010 <s> 你好 </s>
-0.3010 <s> 停止 </s>
-0.3010 <s> 全关模式 </s>
-0.3010 <s> 关灯 </s>
-0.3010 <s> 关电视 </s>
-0.3010 <s> 关空调 </s>
-0.3010 <s> 关窗帘 </s>
-0.3010 <s> 关窗户 </s>
-0.3010 <s> 关风扇 </s>
-0.3010 <s> 制冷 </s>
-0.3010 <s> 制热 </s>
-0.3010 <s> 前进 </s>
-0.3010 <s> 去充电 </s>
-0.3010 <s> 右转 </s>
-0.3010 <s> 后退 </s>
-0.3010 <s> 向右 </s>
-0.3010 <s> 向右转 </s>
-0.3010 <s> 向左 </s>
-0.3010 <s> 向左转 </s>
-0.3010 <s> 回家模式 </s>
-0.3010 <s> 左转 </s>
-0.3010 <s> 开灯 </s>
-0.3010 <s> 开电视 </s>
-0.3010 <s> 开空调 </s>
-0.3010 <s> 开窗帘 </s>
-0.3010 <s> 开窗户 </s>
-0.3010 <s> 开风扇 </s>
-0.3010 <s> 影院模式 </s>
-0.3010 <s> 我爱你 </s>
-0.3010 <s> 抬头 </s>
-0.3010 <s> 晨起模式 </s>
-0.3010 <s> 机器管家 </s>
-0.3010 <s> 用餐模式 </s>
-0.3010 <s> 看手势 </s>
-0.3010 <s> 睡眠模式 </s>
-0.3010 <s> 离家模式 </s>
-0.3010 <s> 自动 </s>
-0.3010 <s> 走开 </s>
-0.3010 <s> 起夜模式 </s>
-0.3010 <s> 跟我走 </s>
-0.3010 <s> 过来 </s>
-0.3010 <s> 送风 </s>
-0.3010 <s> 除湿 </s>
-0.3010 <s> 静音 </s>
-0.3010 <s> 音量减 </s>
-0.3010 <s> 音量加 </s>
-0.3010 <s> 频道减 </s>
-0.3010 <s> 频道加 </s>

\end\
