<?xml version="1.0"?>
<opencv_storage>
<output type_id="opencv-haar-classifier">
  <size>
    18 18</size>
  <stages>
    <_>
      <!-- stage 0 -->
      <trees>
        <_>
          <!-- tree 0 -->
          <_>
            <!-- root node -->
            <feature>
              <rects>
                <_>
                  5 2 9 12 -1.</_>
                <_>
                  5 5 9 6 2.</_></rects>
              <tilted>0</tilted></feature>
            <threshold>-0.0801106169819832</threshold>
            <left_node>1</left_node>
            <right_val>-0.8241283297538757</right_val></_>
          <_>
            <!-- node 1 -->
            <feature>
              <rects>
                <_>
                  6 12 8 6 -1.</_>
                <_>
                  6 15 8 3 2.</_></rects>
              <tilted>0</tilted></feature>
            <threshold>0.0283452998846769</threshold>
            <left_val>0.9048638939857483</left_val>
            <right_val>-0.6192306280136108</right_val></_></_>
        <_>
          <!-- tree 1 -->
          <_>
            <!-- root node -->
            <feature>
              <rects>
                <_>
                  6 2 7 8 -1.</_>
                <_>
                  6 6 7 4 2.</_></rects>
              <tilted>0</tilted></feature>
            <threshold>-0.0289097893983126</threshold>
            <left_node>1</left_node>
            <right_val>-0.8658465743064880</right_val></_>
          <_>
            <!-- node 1 -->
            <feature>
              <rects>
                <_>
                  4 2 12 12 -1.</_>
                <_>
                  10 2 6 12 2.</_></rects>
              <tilted>0</tilted></feature>
            <threshold>-0.1008092015981674</threshold>
            <left_val>-0.5370723009109497</left_val>
            <right_val>0.7921456098556519</right_val></_></_>
        <_>
          <!-- tree 2 -->
          <_>
            <!-- root node -->
            <feature>
              <rects>
                <_>
                  5 3 7 12 -1.</_>
                <_>
                  5 7 7 4 3.</_></rects>
              <tilted>0</tilted></feature>
            <threshold>-0.0583193004131317</threshold>
            <left_node>1</left_node>
            <right_val>-0.6416066884994507</right_val></_>
          <_>
            <!-- node 1 -->
            <feature>
              <rects>
                <_>
                  2 9 11 8 -1.</_>
                <_>
                  2 13 11 4 2.</_></rects>
              <tilted>0</tilted></feature>
            <threshold>0.1271339058876038</threshold>
            <left_val>0.6872491836547852</left_val>
            <right_val>-0.7028586268424988</right_val></_></_>
        <_>
          <!-- tree 3 -->
          <_>
            <!-- root node -->
            <feature>
              <rects>
                <_>
                  0 4 2 9 -1.</_>
                <_>
                  1 4 1 9 2.</_></rects>
              <tilted>0</tilted></feature>
            <threshold>7.8072259202599525e-003</threshold>
            <left_node>1</left_node>
            <right_val>0.8056764006614685</right_val></_>
          <_>
            <!-- node 1 -->
            <feature>
              <rects>
                <_>
                  2 0 15 16 -1.</_>
                <_>
                  2 4 15 8 2.</_></rects>
              <tilted>0</tilted></feature>
            <threshold>-0.2984161972999573</threshold>
            <left_val>0.6076173186302185</left_val>
            <right_val>-0.7304043173789978</right_val></_></_></trees>
      <stage_threshold>-1.7331299781799316</stage_threshold>
      <parent>-1</parent>
      <next>-1</next></_>
    <_>
      <!-- stage 1 -->
      <trees>
        <_>
          <!-- tree 0 -->
          <_>
            <!-- root node -->
            <feature>
              <rects>
                <_>
                  7 3 5 12 -1.</_>
                <_>
                  7 7 5 4 3.</_></rects>
              <tilted>0</tilted></feature>
            <threshold>-0.0815731808543205</threshold>
            <left_node>1</left_node>
            <right_val>-0.7127208113670349</right_val></_>
          <_>
            <!-- node 1 -->
            <feature>
              <rects>
                <_>
                  8 14 4 4 -1.</_>
                <_>
                  8 16 4 2 2.</_></rects>
              <tilted>0</tilted></feature>
            <threshold>1.3860330218449235e-003</threshold>
            <left_val>0.8660938143730164</left_val>
            <right_val>-0.3896316885948181</right_val></_></_>
        <_>
          <!-- tree 1 -->
          <_>
            <!-- root node -->
            <feature>
              <rects>
                <_>
                  5 1 7 8 -1.</_>
                <_>
                  5 5 7 4 2.</_></rects>
              <tilted>0</tilted></feature>
            <threshold>-0.0466782003641129</threshold>
            <left_val>0.4579888880252838</left_val>
            <right_node>1</right_node></_>
          <_>
            <!-- node 1 -->
            <feature>
              <rects>
                <_>
                  2 0 12 8 -1.</_>
                <_>
                  2 2 12 4 2.</_></rects>
              <tilted>0</tilted></feature>
            <threshold>0.1105485036969185</threshold>
            <left_val>-0.8658751249313355</left_val>
            <right_val>0.8834475874900818</right_val></_></_>
        <_>
          <!-- tree 2 -->
          <_>
            <!-- root node -->
            <feature>
              <rects>
                <_>
                  5 0 12 4 -1.</_>
                <_>
                  5 2 12 2 2.</_></rects>
              <tilted>0</tilted></feature>
            <threshold>-0.0667646080255508</threshold>
            <left_val>0.7764996290206909</left_val>
            <right_node>1</right_node></_>
          <_>
            <!-- node 1 -->
            <feature>
              <rects>
                <_>
                  5 0 10 2 -1.</_>
                <_>
                  5 1 10 1 2.</_></rects>
              <tilted>0</tilted></feature>
            <threshold>0.0199557393789291</threshold>
            <left_val>-0.6117941141128540</left_val>
            <right_val>0.7458227276802063</right_val></_></_>
        <_>
          <!-- tree 3 -->
          <_>
            <!-- root node -->
            <feature>
              <rects>
                <_>
                  7 9 4 9 -1.</_>
                <_>
                  7 12 4 3 3.</_></rects>
              <tilted>0</tilted></feature>
            <threshold>7.2769941762089729e-003</threshold>
            <left_val>-0.6134129762649536</left_val>
            <right_node>1</right_node></_>
          <_>
            <!-- node 1 -->
            <feature>
              <rects>
                <_>
                  3 5 8 9 -1.</_>
                <_>
                  7 5 4 9 2.</_></rects>
              <tilted>0</tilted></feature>
            <threshold>0.0178388692438602</threshold>
            <left_val>0.6242951750755310</left_val>
            <right_val>-0.6633499264717102</right_val></_></_>
        <_>
          <!-- tree 4 -->
          <_>
            <!-- root node -->
            <feature>
              <rects>
                <_>
                  11 16 1 2 -1.</_>
                <_>
                  11 17 1 1 2.</_></rects>
              <tilted>0</tilted></feature>
            <threshold>-7.6977106800768524e-005</threshold>
            <left_node>1</left_node>
            <right_val>-0.5918418169021606</right_val></_>
          <_>
            <!-- node 1 -->
            <feature>
              <rects>
                <_>
                  9 14 3 3 -1.</_>
                <_>
                  10 15 1 1 9.</_></rects>
              <tilted>0</tilted></feature>
            <threshold>-2.1737199276685715e-003</threshold>
            <left_val>-0.5451132059097290</left_val>
            <right_val>0.5649716854095459</right_val></_></_>
        <_>
          <!-- tree 5 -->
          <_>
            <!-- root node -->
            <feature>
              <rects>
                <_>
                  3 7 2 3 -1.</_>
                <_>
                  4 7 1 3 2.</_></rects>
              <tilted>0</tilted></feature>
            <threshold>-1.6594829503446817e-003</threshold>
            <left_node>1</left_node>
            <right_val>-0.4659422934055328</right_val></_>
          <_>
            <!-- node 1 -->
            <feature>
              <rects>
                <_>
                  0 8 15 6 -1.</_>
                <_>
                  0 10 15 2 3.</_></rects>
              <tilted>0</tilted></feature>
            <threshold>0.0100279198959470</threshold>
            <left_val>-0.1356451064348221</left_val>
            <right_val>0.8025771975517273</right_val></_></_>
        <_>
          <!-- tree 6 -->
          <_>
            <!-- root node -->
            <feature>
              <rects>
                <_>
                  7 4 10 8 -1.</_>
                <_>
                  12 4 5 8 2.</_></rects>
              <tilted>0</tilted></feature>
            <threshold>-0.0181026794016361</threshold>
            <left_val>-0.7507193088531494</left_val>
            <right_node>1</right_node></_>
          <_>
            <!-- node 1 -->
            <feature>
              <rects>
                <_>
                  4 5 10 10 -1.</_>
                <_>
                  9 5 5 10 2.</_></rects>
              <tilted>0</tilted></feature>
            <threshold>0.0753287672996521</threshold>
            <left_val>0.4825071096420288</left_val>
            <right_val>-0.7427014112472534</right_val></_></_>
        <_>
          <!-- tree 7 -->
          <_>
            <!-- root node -->
            <feature>
              <rects>
                <_>
                  6 14 1 4 -1.</_>
                <_>
                  6 16 1 2 2.</_></rects>
              <tilted>0</tilted></feature>
            <threshold>-7.8986333392094821e-005</threshold>
            <left_node>1</left_node>
            <right_val>-0.5359792709350586</right_val></_>
          <_>
            <!-- node 1 -->
            <feature>
              <rects>
                <_>
                  4 8 10 9 -1.</_>
                <_>
                  9 8 5 9 2.</_></rects>
              <tilted>0</tilted></feature>
            <threshold>-0.1171730980277062</threshold>
            <left_val>-0.8946455121040344</left_val>
            <right_val>0.4644567966461182</right_val></_></_>
        <_>
          <!-- tree 8 -->
          <_>
            <!-- root node -->
            <feature>
              <rects>
                <_>
                  0 5 2 7 -1.</_>
                <_>
                  1 5 1 7 2.</_></rects>
              <tilted>0</tilted></feature>
            <threshold>-9.0228151530027390e-003</threshold>
            <left_val>0.6674473881721497</left_val>
            <right_node>1</right_node></_>
          <_>
            <!-- node 1 -->
            <feature>
              <rects>
                <_>
                  16 6 2 6 -1.</_>
                <_>
                  17 6 1 6 2.</_></rects>
              <tilted>0</tilted></feature>
            <threshold>-0.0116283297538757</threshold>
            <left_val>0.8085442781448364</left_val>
            <right_val>-0.4653503000736237</right_val></_></_></trees>
      <stage_threshold>-2.0955369472503662</stage_threshold>
      <parent>0</parent>
      <next>-1</next></_>
    <_>
      <!-- stage 2 -->
      <trees>
        <_>
          <!-- tree 0 -->
          <_>
            <!-- root node -->
            <feature>
              <rects>
                <_>
                  1 8 16 2 -1.</_>
                <_>
                  5 8 8 2 2.</_></rects>
              <tilted>0</tilted></feature>
            <threshold>-0.0219592191278934</threshold>
            <left_node>1</left_node>
            <right_val>-0.7125704884529114</right_val></_>
          <_>
            <!-- node 1 -->
            <feature>
              <rects>
                <_>
                  4 10 9 6 -1.</_>
                <_>
                  4 12 9 2 3.</_></rects>
              <tilted>0</tilted></feature>
            <threshold>3.6615959834307432e-003</threshold>
            <left_val>-0.5788444876670837</left_val>
            <right_val>0.6564689874649048</right_val></_></_>
        <_>
          <!-- tree 1 -->
          <_>
            <!-- root node -->
            <feature>
              <rects>
                <_>
                  0 3 2 11 -1.</_>
                <_>
                  1 3 1 11 2.</_></rects>
              <tilted>0</tilted></feature>
            <threshold>0.0195691809058189</threshold>
            <left_node>1</left_node>
            <right_val>0.7437071204185486</right_val></_>
          <_>
            <!-- node 1 -->
            <feature>
              <rects>
                <_>
                  0 2 6 8 -1.</_>
                <_>
                  3 2 3 8 2.</_></rects>
              <tilted>0</tilted></feature>
            <threshold>-0.0551173314452171</threshold>
            <left_val>0.4992027878761292</left_val>
            <right_val>-0.6211547255516052</right_val></_></_>
        <_>
          <!-- tree 2 -->
          <_>
            <!-- root node -->
            <feature>
              <rects>
                <_>
                  3 3 11 6 -1.</_>
                <_>
                  3 6 11 3 2.</_></rects>
              <tilted>0</tilted></feature>
            <threshold>-0.0380787812173367</threshold>
            <left_node>1</left_node>
            <right_val>-0.7634825110435486</right_val></_>
          <_>
            <!-- node 1 -->
            <feature>
              <rects>
                <_>
                  8 13 1 3 -1.</_>
                <_>
                  8 14 1 1 3.</_></rects>
              <tilted>0</tilted></feature>
            <threshold>-3.3517740666866302e-004</threshold>
            <left_val>-0.6089016795158386</left_val>
            <right_val>0.4890784919261932</right_val></_></_>
        <_>
          <!-- tree 3 -->
          <_>
            <!-- root node -->
            <feature>
              <rects>
                <_>
                  16 2 2 16 -1.</_>
                <_>
                  17 2 1 16 2.</_></rects>
              <tilted>0</tilted></feature>
            <threshold>0.0200589895248413</threshold>
            <left_node>1</left_node>
            <right_val>0.8045145869255066</right_val></_>
          <_>
            <!-- node 1 -->
            <feature>
              <rects>
                <_>
                  14 1 4 6 -1.</_>
                <_>
                  16 1 2 6 2.</_></rects>
              <tilted>0</tilted></feature>
            <threshold>-0.0254939198493958</threshold>
            <left_val>0.5548657774925232</left_val>
            <right_val>-0.5202276706695557</right_val></_></_>
        <_>
          <!-- tree 4 -->
          <_>
            <!-- root node -->
            <feature>
              <rects>
                <_>
                  4 5 11 2 -1.</_>
                <_>
                  4 6 11 1 2.</_></rects>
              <tilted>0</tilted></feature>
            <threshold>-1.9058010075241327e-003</threshold>
            <left_node>1</left_node>
            <right_val>-0.6773158907890320</right_val></_>
          <_>
            <!-- node 1 -->
            <feature>
              <rects>
                <_>
                  13 6 4 12 -1.</_>
                <_>
                  13 6 2 6 2.</_>
                <_>
                  15 12 2 6 2.</_></rects>
              <tilted>0</tilted></feature>
            <threshold>-0.0141140995547175</threshold>
            <left_val>0.5958914160728455</left_val>
            <right_val>-0.1204395964741707</right_val></_></_>
        <_>
          <!-- tree 5 -->
          <_>
            <!-- root node -->
            <feature>
              <rects>
                <_>
                  7 7 3 2 -1.</_>
                <_>
                  7 8 3 1 2.</_></rects>
              <tilted>0</tilted></feature>
            <threshold>-1.2695139739662409e-003</threshold>
            <left_node>1</left_node>
            <right_val>-0.4012852013111115</right_val></_>
          <_>
            <!-- node 1 -->
            <feature>
              <rects>
                <_>
                  3 6 6 6 -1.</_>
                <_>
                  6 6 3 6 2.</_></rects>
              <tilted>0</tilted></feature>
            <threshold>-2.5025100912898779e-003</threshold>
            <left_val>0.5009734034538269</left_val>
            <right_val>-0.3912009000778198</right_val></_></_>
        <_>
          <!-- tree 6 -->
          <_>
            <!-- root node -->
            <feature>
              <rects>
                <_>
                  0 1 6 17 -1.</_>
                <_>
                  3 1 3 17 2.</_></rects>
              <tilted>0</tilted></feature>
            <threshold>0.0946553573012352</threshold>
            <left_node>1</left_node>
            <right_val>0.7311816811561585</right_val></_>
          <_>
            <!-- node 1 -->
            <feature>
              <rects>
                <_>
                  4 0 12 8 -1.</_>
                <_>
                  4 4 12 4 2.</_></rects>
              <tilted>0</tilted></feature>
            <threshold>-0.1606038957834244</threshold>
            <left_val>0.3197179138660431</left_val>
            <right_val>-0.5158156156539917</right_val></_></_>
        <_>
          <!-- tree 7 -->
          <_>
            <!-- root node -->
            <feature>
              <rects>
                <_>
                  8 16 1 2 -1.</_>
                <_>
                  8 17 1 1 2.</_></rects>
              <tilted>0</tilted></feature>
            <threshold>-4.2275700252503157e-004</threshold>
            <left_node>1</left_node>
            <right_val>-0.3996948897838593</right_val></_>
          <_>
            <!-- node 1 -->
            <feature>
              <rects>
                <_>
                  9 13 3 3 -1.</_>
                <_>
                  10 14 1 1 9.</_></rects>
              <tilted>0</tilted></feature>
            <threshold>9.9600106477737427e-003</threshold>
            <left_val>0.4714620113372803</left_val>
            <right_val>-0.8654168844223023</right_val></_></_>
        <_>
          <!-- tree 8 -->
          <_>
            <!-- root node -->
            <feature>
              <rects>
                <_>
                  0 5 4 11 -1.</_>
                <_>
                  2 5 2 11 2.</_></rects>
              <tilted>0</tilted></feature>
            <threshold>-0.0430029816925526</threshold>
            <left_val>0.6093407273292542</left_val>
            <right_node>1</right_node></_>
          <_>
            <!-- node 1 -->
            <feature>
              <rects>
                <_>
                  1 1 6 8 -1.</_>
                <_>
                  1 1 3 4 2.</_>
                <_>
                  4 5 3 4 2.</_></rects>
              <tilted>0</tilted></feature>
            <threshold>-0.0313971601426601</threshold>
            <left_val>0.3920615017414093</left_val>
            <right_val>-0.5346643924713135</right_val></_></_>
        <_>
          <!-- tree 9 -->
          <_>
            <!-- root node -->
            <feature>
              <rects>
                <_>
                  8 12 3 3 -1.</_>
                <_>
                  8 13 3 1 3.</_></rects>
              <tilted>0</tilted></feature>
            <threshold>-8.1531202886253595e-004</threshold>
            <left_val>-0.5889490246772766</left_val>
            <right_node>1</right_node></_>
          <_>
            <!-- node 1 -->
            <feature>
              <rects>
                <_>
                  10 12 2 3 -1.</_>
                <_>
                  10 13 2 1 3.</_></rects>
              <tilted>0</tilted></feature>
            <threshold>2.5807989295572042e-003</threshold>
            <left_val>0.3611269891262054</left_val>
            <right_val>-0.6735208034515381</right_val></_></_>
        <_>
          <!-- tree 10 -->
          <_>
            <!-- root node -->
            <feature>
              <rects>
                <_>
                  11 1 3 1 -1.</_>
                <_>
                  12 1 1 1 3.</_></rects>
              <tilted>0</tilted></feature>
            <threshold>-1.3649429893121123e-003</threshold>
            <left_val>0.5759887099266052</left_val>
            <right_node>1</right_node></_>
          <_>
            <!-- node 1 -->
            <feature>
              <rects>
                <_>
                  7 1 3 9 -1.</_>
                <_>
                  8 1 1 9 3.</_></rects>
              <tilted>0</tilted></feature>
            <threshold>4.6938010491430759e-003</threshold>
            <left_val>-0.4292058050632477</left_val>
            <right_val>0.4101387858390808</right_val></_></_></trees>
      <stage_threshold>-1.9134229421615601</stage_threshold>
      <parent>1</parent>
      <next>-1</next></_>
    <_>
      <!-- stage 3 -->
      <trees>
        <_>
          <!-- tree 0 -->
          <_>
            <!-- root node -->
            <feature>
              <rects>
                <_>
                  3 8 12 9 -1.</_>
                <_>
                  3 11 12 3 3.</_></rects>
              <tilted>0</tilted></feature>
            <threshold>0.0867905169725418</threshold>
            <left_val>-0.5292912721633911</left_val>
            <right_node>1</right_node></_>
          <_>
            <!-- node 1 -->
            <feature>
              <rects>
                <_>
                  7 7 10 4 -1.</_>
                <_>
                  12 7 5 4 2.</_></rects>
              <tilted>0</tilted></feature>
            <threshold>0.0111542399972677</threshold>
            <left_val>-0.4498425126075745</left_val>
            <right_val>0.6957936882972717</right_val></_></_>
        <_>
          <!-- tree 1 -->
          <_>
            <!-- root node -->
            <feature>
              <rects>
                <_>
                  6 15 7 2 -1.</_>
                <_>
                  6 16 7 1 2.</_></rects>
              <tilted>0</tilted></feature>
            <threshold>-2.6180119675700553e-005</threshold>
            <left_node>1</left_node>
            <right_val>-0.5940089821815491</right_val></_>
          <_>
            <!-- node 1 -->
            <feature>
              <rects>
                <_>
                  8 15 3 3 -1.</_>
                <_>
                  9 16 1 1 9.</_></rects>
              <tilted>0</tilted></feature>
            <threshold>-3.1562000513076782e-003</threshold>
            <left_val>-0.5535889863967896</left_val>
            <right_val>0.4461300075054169</right_val></_></_>
        <_>
          <!-- tree 2 -->
          <_>
            <!-- root node -->
            <feature>
              <rects>
                <_>
                  6 0 10 4 -1.</_>
                <_>
                  6 2 10 2 2.</_></rects>
              <tilted>0</tilted></feature>
            <threshold>-0.0671673566102982</threshold>
            <left_val>0.6149073243141174</left_val>
            <right_node>1</right_node></_>
          <_>
            <!-- node 1 -->
            <feature>
              <rects>
                <_>
                  4 0 11 2 -1.</_>
                <_>
                  4 1 11 1 2.</_></rects>
              <tilted>0</tilted></feature>
            <threshold>0.0198036804795265</threshold>
            <left_val>-0.5426617264747620</left_val>
            <right_val>0.5683606266975403</right_val></_></_>
        <_>
          <!-- tree 3 -->
          <_>
            <!-- root node -->
            <feature>
              <rects>
                <_>
                  1 7 16 5 -1.</_>
                <_>
                  5 7 8 5 2.</_></rects>
              <tilted>0</tilted></feature>
            <threshold>-0.0398611389100552</threshold>
            <left_node>1</left_node>
            <right_val>-0.5539414286613464</right_val></_>
          <_>
            <!-- node 1 -->
            <feature>
              <rects>
                <_>
                  10 13 2 3 -1.</_>
                <_>
                  10 14 2 1 3.</_></rects>
              <tilted>0</tilted></feature>
            <threshold>-1.9261949928477407e-003</threshold>
            <left_val>-0.8719053268432617</left_val>
            <right_val>0.3297986984252930</right_val></_></_>
        <_>
          <!-- tree 4 -->
          <_>
            <!-- root node -->
            <feature>
              <rects>
                <_>
                  0 2 4 12 -1.</_>
                <_>
                  2 2 2 12 2.</_></rects>
              <tilted>0</tilted></feature>
            <threshold>0.0578362494707108</threshold>
            <left_node>1</left_node>
            <right_val>0.7083861231803894</right_val></_>
          <_>
            <!-- node 1 -->
            <feature>
              <rects>
                <_>
                  0 5 4 4 -1.</_>
                <_>
                  2 5 2 4 2.</_></rects>
              <tilted>0</tilted></feature>
            <threshold>-0.0214743204414845</threshold>
            <left_val>0.4438894987106323</left_val>
            <right_val>-0.4674305915832520</right_val></_></_>
        <_>
          <!-- tree 5 -->
          <_>
            <!-- root node -->
            <feature>
              <rects>
                <_>
                  16 3 2 11 -1.</_>
                <_>
                  17 3 1 11 2.</_></rects>
              <tilted>0</tilted></feature>
            <threshold>0.0112691801041365</threshold>
            <left_node>1</left_node>
            <right_val>0.5500555038452148</right_val></_>
          <_>
            <!-- node 1 -->
            <feature>
              <rects>
                <_>
                  15 4 3 6 -1.</_>
                <_>
                  16 4 1 6 3.</_></rects>
              <tilted>0</tilted></feature>
            <threshold>6.4299749210476875e-003</threshold>
            <left_val>-0.5204409956932068</left_val>
            <right_val>0.3247377872467041</right_val></_></_>
        <_>
          <!-- tree 6 -->
          <_>
            <!-- root node -->
            <feature>
              <rects>
                <_>
                  3 3 14 6 -1.</_>
                <_>
                  3 6 14 3 2.</_></rects>
              <tilted>0</tilted></feature>
            <threshold>-0.0619285590946674</threshold>
            <left_node>1</left_node>
            <right_val>-0.5364398956298828</right_val></_>
          <_>
            <!-- node 1 -->
            <feature>
              <rects>
                <_>
                  7 12 4 4 -1.</_>
                <_>
                  7 13 4 2 2.</_></rects>
              <tilted>0</tilted></feature>
            <threshold>4.7306099440902472e-004</threshold>
            <left_val>-0.3310166895389557</left_val>
            <right_val>0.4034563899040222</right_val></_></_>
        <_>
          <!-- tree 7 -->
          <_>
            <!-- root node -->
            <feature>
              <rects>
                <_>
                  3 8 3 6 -1.</_>
                <_>
                  3 10 3 2 3.</_></rects>
              <tilted>0</tilted></feature>
            <threshold>3.9875730872154236e-003</threshold>
            <left_val>-0.2769542932510376</left_val>
            <right_node>1</right_node></_>
          <_>
            <!-- node 1 -->
            <feature>
              <rects>
                <_>
                  8 14 3 3 -1.</_>
                <_>
                  9 15 1 1 9.</_></rects>
              <tilted>0</tilted></feature>
            <threshold>6.6544460132718086e-003</threshold>
            <left_val>0.4926663935184479</left_val>
            <right_val>-0.4858565032482147</right_val></_></_>
        <_>
          <!-- tree 8 -->
          <_>
            <!-- root node -->
            <feature>
              <rects>
                <_>
                  7 16 2 2 -1.</_>
                <_>
                  7 17 2 1 2.</_></rects>
              <tilted>0</tilted></feature>
            <threshold>-6.5024352807085961e-005</threshold>
            <left_node>1</left_node>
            <right_val>-0.4703288078308106</right_val></_>
          <_>
            <!-- node 1 -->
            <feature>
              <rects>
                <_>
                  16 0 2 1 -1.</_>
                <_>
                  17 0 1 1 2.</_></rects>
              <tilted>0</tilted></feature>
            <threshold>-5.5876432452350855e-004</threshold>
            <left_val>-0.3864426016807556</left_val>
            <right_val>0.3948231935501099</right_val></_></_>
        <_>
          <!-- tree 9 -->
          <_>
            <!-- root node -->
            <feature>
              <rects>
                <_>
                  11 0 1 3 -1.</_>
                <_>
                  11 1 1 1 3.</_></rects>
              <tilted>0</tilted></feature>
            <threshold>-1.4493570197373629e-003</threshold>
            <left_val>0.4871559143066406</left_val>
            <right_node>1</right_node></_>
          <_>
            <!-- node 1 -->
            <feature>
              <rects>
                <_>
                  2 1 6 4 -1.</_>
                <_>
                  2 1 3 2 2.</_>
                <_>
                  5 3 3 2 2.</_></rects>
              <tilted>0</tilted></feature>
            <threshold>-0.0220459606498480</threshold>
            <left_val>0.6317049860954285</left_val>
            <right_val>-0.3311319053173065</right_val></_></_>
        <_>
          <!-- tree 10 -->
          <_>
            <!-- root node -->
            <feature>
              <rects>
                <_>
                  0 0 1 2 -1.</_>
                <_>
                  0 1 1 1 2.</_></rects>
              <tilted>0</tilted></feature>
            <threshold>-6.3138792756944895e-004</threshold>
            <left_val>-0.4838911890983582</left_val>
            <right_node>1</right_node></_>
          <_>
            <!-- node 1 -->
            <feature>
              <rects>
                <_>
                  0 0 1 2 -1.</_>
                <_>
                  0 1 1 1 2.</_></rects>
              <tilted>0</tilted></feature>
            <threshold>8.9355267118662596e-004</threshold>
            <left_val>0.4018121063709259</left_val>
            <right_val>-0.5311157107353210</right_val></_></_>
        <_>
          <!-- tree 11 -->
          <_>
            <!-- root node -->
            <feature>
              <rects>
                <_>
                  8 8 3 2 -1.</_>
                <_>
                  8 9 3 1 2.</_></rects>
              <tilted>0</tilted></feature>
            <threshold>-2.2596418857574463e-003</threshold>
            <left_val>0.4454765915870667</left_val>
            <right_node>1</right_node></_>
          <_>
            <!-- node 1 -->
            <feature>
              <rects>
                <_>
                  1 5 15 6 -1.</_>
                <_>
                  6 7 5 2 9.</_></rects>
              <tilted>0</tilted></feature>
            <threshold>-0.2926853895187378</threshold>
            <left_val>0.4061084091663361</left_val>
            <right_val>-0.4542610943317413</right_val></_></_>
        <_>
          <!-- tree 12 -->
          <_>
            <!-- root node -->
            <feature>
              <rects>
                <_>
                  8 14 2 4 -1.</_>
                <_>
                  8 14 1 2 2.</_>
                <_>
                  9 16 1 2 2.</_></rects>
              <tilted>0</tilted></feature>
            <threshold>1.9270300399512053e-003</threshold>
            <left_node>1</left_node>
            <right_val>-0.6470721960067749</right_val></_>
          <_>
            <!-- node 1 -->
            <feature>
              <rects>
                <_>
                  5 0 8 13 -1.</_>
                <_>
                  9 0 4 13 2.</_></rects>
              <tilted>0</tilted></feature>
            <threshold>0.0726886093616486</threshold>
            <left_val>0.2589142918586731</left_val>
            <right_val>-0.7220296859741211</right_val></_></_>
        <_>
          <!-- tree 13 -->
          <_>
            <!-- root node -->
            <feature>
              <rects>
                <_>
                  16 6 2 12 -1.</_>
                <_>
                  16 6 1 6 2.</_>
                <_>
                  17 12 1 6 2.</_></rects>
              <tilted>0</tilted></feature>
            <threshold>0.0106046097353101</threshold>
            <left_node>1</left_node>
            <right_val>0.5389323830604553</right_val></_>
          <_>
            <!-- node 1 -->
            <feature>
              <rects>
                <_>
                  0 5 2 7 -1.</_>
                <_>
                  1 5 1 7 2.</_></rects>
              <tilted>0</tilted></feature>
            <threshold>-0.0192094091325998</threshold>
            <left_val>0.6375259757041931</left_val>
            <right_val>-0.3499729931354523</right_val></_></_>
        <_>
          <!-- tree 14 -->
          <_>
            <!-- root node -->
            <feature>
              <rects>
                <_>
                  0 4 2 14 -1.</_>
                <_>
                  1 4 1 14 2.</_></rects>
              <tilted>0</tilted></feature>
            <threshold>0.0134330401197076</threshold>
            <left_node>1</left_node>
            <right_val>0.5131999254226685</right_val></_>
          <_>
            <!-- node 1 -->
            <feature>
              <rects>
                <_>
                  0 4 15 13 -1.</_>
                <_>
                  5 4 5 13 3.</_></rects>
              <tilted>0</tilted></feature>
            <threshold>-0.1553384065628052</threshold>
            <left_val>0.2022370994091034</left_val>
            <right_val>-0.4944623112678528</right_val></_></_></trees>
      <stage_threshold>-1.4692430496215820</stage_threshold>
      <parent>2</parent>
      <next>-1</next></_>
    <_>
      <!-- stage 4 -->
      <trees>
        <_>
          <!-- tree 0 -->
          <_>
            <!-- root node -->
            <feature>
              <rects>
                <_>
                  4 4 10 9 -1.</_>
                <_>
                  4 7 10 3 3.</_></rects>
              <tilted>0</tilted></feature>
            <threshold>-0.1129926964640617</threshold>
            <left_node>1</left_node>
            <right_val>-0.5135598182678223</right_val></_>
          <_>
            <!-- node 1 -->
            <feature>
              <rects>
                <_>
                  7 12 2 3 -1.</_>
                <_>
                  7 13 2 1 3.</_></rects>
              <tilted>0</tilted></feature>
            <threshold>-8.9364667655900121e-004</threshold>
            <left_val>-0.7120171785354614</left_val>
            <right_val>0.5471863746643066</right_val></_></_>
        <_>
          <!-- tree 1 -->
          <_>
            <!-- root node -->
            <feature>
              <rects>
                <_>
                  5 0 10 2 -1.</_>
                <_>
                  5 1 10 1 2.</_></rects>
              <tilted>0</tilted></feature>
            <threshold>0.0396178402006626</threshold>
            <left_node>1</left_node>
            <right_val>0.7978348135948181</right_val></_>
          <_>
            <!-- node 1 -->
            <feature>
              <rects>
                <_>
                  5 0 8 2 -1.</_>
                <_>
                  5 1 8 1 2.</_></rects>
              <tilted>0</tilted></feature>
            <threshold>-0.0159256104379892</threshold>
            <left_val>0.5196933746337891</left_val>
            <right_val>-0.3897444009780884</right_val></_></_>
        <_>
          <!-- tree 2 -->
          <_>
            <!-- root node -->
            <feature>
              <rects>
                <_>
                  7 13 3 4 -1.</_>
                <_>
                  7 14 3 2 2.</_></rects>
              <tilted>0</tilted></feature>
            <threshold>1.7999550618696958e-004</threshold>
            <left_val>-0.5039154291152954</left_val>
            <right_node>1</right_node></_>
          <_>
            <!-- node 1 -->
            <feature>
              <rects>
                <_>
                  2 6 10 6 -1.</_>
                <_>
                  7 6 5 6 2.</_></rects>
              <tilted>0</tilted></feature>
            <threshold>-2.8585339896380901e-003</threshold>
            <left_val>0.3938434123992920</left_val>
            <right_val>-0.4642201960086823</right_val></_></_>
        <_>
          <!-- tree 3 -->
          <_>
            <!-- root node -->
            <feature>
              <rects>
                <_>
                  6 5 10 7 -1.</_>
                <_>
                  11 5 5 7 2.</_></rects>
              <tilted>0</tilted></feature>
            <threshold>5.6309909559786320e-003</threshold>
            <left_val>-0.5278884172439575</left_val>
            <right_node>1</right_node></_>
          <_>
            <!-- node 1 -->
            <feature>
              <rects>
                <_>
                  7 3 8 11 -1.</_>
                <_>
                  11 3 4 11 2.</_></rects>
              <tilted>0</tilted></feature>
            <threshold>0.0875125899910927</threshold>
            <left_val>0.3735673129558563</left_val>
            <right_val>-0.5124232769012451</right_val></_></_>
        <_>
          <!-- tree 4 -->
          <_>
            <!-- root node -->
            <feature>
              <rects>
                <_>
                  14 2 4 14 -1.</_>
                <_>
                  16 2 2 14 2.</_></rects>
              <tilted>0</tilted></feature>
            <threshold>-0.0557349100708961</threshold>
            <left_val>0.5514953136444092</left_val>
            <right_node>1</right_node></_>
          <_>
            <!-- node 1 -->
            <feature>
              <rects>
                <_>
                  16 3 2 12 -1.</_>
                <_>
                  17 3 1 12 2.</_></rects>
              <tilted>0</tilted></feature>
            <threshold>0.0133148804306984</threshold>
            <left_val>-0.4312213063240051</left_val>
            <right_val>0.3335587978363037</right_val></_></_>
        <_>
          <!-- tree 5 -->
          <_>
            <!-- root node -->
            <feature>
              <rects>
                <_>
                  10 5 4 2 -1.</_>
                <_>
                  10 6 4 1 2.</_></rects>
              <tilted>0</tilted></feature>
            <threshold>-2.2041899501346052e-004</threshold>
            <left_node>1</left_node>
            <right_val>-0.6366757154464722</right_val></_>
          <_>
            <!-- node 1 -->
            <feature>
              <rects>
                <_>
                  8 13 1 3 -1.</_>
                <_>
                  8 14 1 1 3.</_></rects>
              <tilted>0</tilted></feature>
            <threshold>1.9280950073152781e-003</threshold>
            <left_val>0.2667230963706970</left_val>
            <right_val>-0.7349715828895569</right_val></_></_>
        <_>
          <!-- tree 6 -->
          <_>
            <!-- root node -->
            <feature>
              <rects>
                <_>
                  8 7 1 2 -1.</_>
                <_>
                  8 8 1 1 2.</_></rects>
              <tilted>0</tilted></feature>
            <threshold>-7.9209843534044921e-005</threshold>
            <left_node>1</left_node>
            <right_val>-0.4257890880107880</right_val></_>
          <_>
            <!-- node 1 -->
            <feature>
              <rects>
                <_>
                  14 11 4 3 -1.</_>
                <_>
                  14 12 4 1 3.</_></rects>
              <tilted>0</tilted></feature>
            <threshold>4.5677949674427509e-003</threshold>
            <left_val>0.3144198060035706</left_val>
            <right_val>-0.5983546972274780</right_val></_></_>
        <_>
          <!-- tree 7 -->
          <_>
            <!-- root node -->
            <feature>
              <rects>
                <_>
                  5 3 9 2 -1.</_>
                <_>
                  5 4 9 1 2.</_></rects>
              <tilted>0</tilted></feature>
            <threshold>9.4402558170258999e-004</threshold>
            <left_node>1</left_node>
            <right_val>-0.6247459053993225</right_val></_>
          <_>
            <!-- node 1 -->
            <feature>
              <rects>
                <_>
                  11 15 1 2 -1.</_>
                <_>
                  11 16 1 1 2.</_></rects>
              <tilted>0</tilted></feature>
            <threshold>-6.6214517573826015e-005</threshold>
            <left_val>0.3211598098278046</left_val>
            <right_val>-0.3272289037704468</right_val></_></_>
        <_>
          <!-- tree 8 -->
          <_>
            <!-- root node -->
            <feature>
              <rects>
                <_>
                  0 3 2 8 -1.</_>
                <_>
                  0 3 1 4 2.</_>
                <_>
                  1 7 1 4 2.</_></rects>
              <tilted>0</tilted></feature>
            <threshold>-0.0144946398213506</threshold>
            <left_val>0.7706305980682373</left_val>
            <right_node>1</right_node></_>
          <_>
            <!-- node 1 -->
            <feature>
              <rects>
                <_>
                  2 7 12 9 -1.</_>
                <_>
                  2 10 12 3 3.</_></rects>
              <tilted>0</tilted></feature>
            <threshold>0.0878086686134338</threshold>
            <left_val>-0.3304922878742218</left_val>
            <right_val>0.2742440104484558</right_val></_></_>
        <_>
          <!-- tree 9 -->
          <_>
            <!-- root node -->
            <feature>
              <rects>
                <_>
                  6 13 1 3 -1.</_>
                <_>
                  6 14 1 1 3.</_></rects>
              <tilted>0</tilted></feature>
            <threshold>-4.9662822857499123e-004</threshold>
            <left_val>-0.5774531960487366</left_val>
            <right_node>1</right_node></_>
          <_>
            <!-- node 1 -->
            <feature>
              <rects>
                <_>
                  3 10 6 6 -1.</_>
                <_>
                  3 10 3 3 2.</_>
                <_>
                  6 13 3 3 2.</_></rects>
              <tilted>0</tilted></feature>
            <threshold>3.0185009818524122e-003</threshold>
            <left_val>-0.2330255955457687</left_val>
            <right_val>0.3697521984577179</right_val></_></_>
        <_>
          <!-- tree 10 -->
          <_>
            <!-- root node -->
            <feature>
              <rects>
                <_>
                  5 0 2 3 -1.</_>
                <_>
                  5 1 2 1 3.</_></rects>
              <tilted>0</tilted></feature>
            <threshold>-2.1837840322405100e-003</threshold>
            <left_val>0.4463188946247101</left_val>
            <right_node>1</right_node></_>
          <_>
            <!-- node 1 -->
            <feature>
              <rects>
                <_>
                  5 1 3 5 -1.</_>
                <_>
                  6 1 1 5 3.</_></rects>
              <tilted>0</tilted></feature>
            <threshold>2.0502030383795500e-003</threshold>
            <left_val>-0.4178211987018585</left_val>
            <right_val>0.2088986039161682</right_val></_></_>
        <_>
          <!-- tree 11 -->
          <_>
            <!-- root node -->
            <feature>
              <rects>
                <_>
                  6 16 4 1 -1.</_>
                <_>
                  7 16 2 1 2.</_></rects>
              <tilted>0</tilted></feature>
            <threshold>2.1709180437028408e-003</threshold>
            <left_node>1</left_node>
            <right_val>-0.7396289706230164</right_val></_>
          <_>
            <!-- node 1 -->
            <feature>
              <rects>
                <_>
                  0 6 14 2 -1.</_>
                <_>
                  0 7 14 1 2.</_></rects>
              <tilted>0</tilted></feature>
            <threshold>0.0118706198409200</threshold>
            <left_val>0.1863680928945541</left_val>
            <right_val>-0.8256785869598389</right_val></_></_>
        <_>
          <!-- tree 12 -->
          <_>
            <!-- root node -->
            <feature>
              <rects>
                <_>
                  3 5 2 6 -1.</_>
                <_>
                  4 5 1 6 2.</_></rects>
              <tilted>0</tilted></feature>
            <threshold>-1.4389470452442765e-003</threshold>
            <left_node>1</left_node>
            <right_val>-0.3684456050395966</right_val></_>
          <_>
            <!-- node 1 -->
            <feature>
              <rects>
                <_>
                  7 14 3 1 -1.</_>
                <_>
                  8 14 1 1 3.</_></rects>
              <tilted>0</tilted></feature>
            <threshold>-1.2023369781672955e-003</threshold>
            <left_val>-0.7251765727996826</left_val>
            <right_val>0.2739281952381134</right_val></_></_>
        <_>
          <!-- tree 13 -->
          <_>
            <!-- root node -->
            <feature>
              <rects>
                <_>
                  4 0 11 2 -1.</_>
                <_>
                  4 1 11 1 2.</_></rects>
              <tilted>0</tilted></feature>
            <threshold>0.0134362401440740</threshold>
            <left_node>1</left_node>
            <right_val>0.4608994126319885</right_val></_>
          <_>
            <!-- node 1 -->
            <feature>
              <rects>
                <_>
                  0 4 2 14 -1.</_>
                <_>
                  1 4 1 14 2.</_></rects>
              <tilted>0</tilted></feature>
            <threshold>-0.0102677596732974</threshold>
            <left_val>0.2466138005256653</left_val>
            <right_val>-0.4560554027557373</right_val></_></_>
        <_>
          <!-- tree 14 -->
          <_>
            <!-- root node -->
            <feature>
              <rects>
                <_>
                  17 0 1 2 -1.</_>
                <_>
                  17 1 1 1 2.</_></rects>
              <tilted>0</tilted></feature>
            <threshold>6.0634710825979710e-004</threshold>
            <left_node>1</left_node>
            <right_val>-0.5905559062957764</right_val></_>
          <_>
            <!-- node 1 -->
            <feature>
              <rects>
                <_>
                  17 0 1 2 -1.</_>
                <_>
                  17 1 1 1 2.</_></rects>
              <tilted>0</tilted></feature>
            <threshold>-3.9716679020784795e-004</threshold>
            <left_val>-0.3554699122905731</left_val>
            <right_val>0.4149214923381805</right_val></_></_>
        <_>
          <!-- tree 15 -->
          <_>
            <!-- root node -->
            <feature>
              <rects>
                <_>
                  4 3 12 9 -1.</_>
                <_>
                  8 3 4 9 3.</_></rects>
              <tilted>0</tilted></feature>
            <threshold>0.0269682593643665</threshold>
            <left_node>1</left_node>
            <right_val>-0.7671409845352173</right_val></_>
          <_>
            <!-- node 1 -->
            <feature>
              <rects>
                <_>
                  9 16 2 2 -1.</_>
                <_>
                  9 17 2 1 2.</_></rects>
              <tilted>0</tilted></feature>
            <threshold>-1.6675470396876335e-004</threshold>
            <left_val>0.2970384955406189</left_val>
            <right_val>-0.4072323143482208</right_val></_></_>
        <_>
          <!-- tree 16 -->
          <_>
            <!-- root node -->
            <feature>
              <rects>
                <_>
                  11 1 4 1 -1.</_>
                <_>
                  12 1 2 1 2.</_></rects>
              <tilted>0</tilted></feature>
            <threshold>-7.8126660082489252e-004</threshold>
            <left_val>0.3292379975318909</left_val>
            <right_node>1</right_node></_>
          <_>
            <!-- node 1 -->
            <feature>
              <rects>
                <_>
                  14 1 2 4 -1.</_>
                <_>
                  14 1 1 2 2.</_>
                <_>
                  15 3 1 2 2.</_></rects>
              <tilted>0</tilted></feature>
            <threshold>3.4542479552328587e-003</threshold>
            <left_val>-0.4074778854846954</left_val>
            <right_val>0.5588989257812500</right_val></_></_></trees>
      <stage_threshold>-1.7831670045852661</stage_threshold>
      <parent>3</parent>
      <next>-1</next></_>
    <_>
      <!-- stage 5 -->
      <trees>
        <_>
          <!-- tree 0 -->
          <_>
            <!-- root node -->
            <feature>
              <rects>
                <_>
                  7 9 4 6 -1.</_>
                <_>
                  7 11 4 2 3.</_></rects>
              <tilted>0</tilted></feature>
            <threshold>8.3558168262243271e-003</threshold>
            <left_val>-0.5088415741920471</left_val>
            <right_node>1</right_node></_>
          <_>
            <!-- node 1 -->
            <feature>
              <rects>
                <_>
                  8 5 2 4 -1.</_>
                <_>
                  8 7 2 2 2.</_></rects>
              <tilted>0</tilted></feature>
            <threshold>-3.2424689270555973e-003</threshold>
            <left_val>0.5093690156936646</left_val>
            <right_val>-0.6294047236442566</right_val></_></_>
        <_>
          <!-- tree 1 -->
          <_>
            <!-- root node -->
            <feature>
              <rects>
                <_>
                  16 2 2 15 -1.</_>
                <_>
                  17 2 1 15 2.</_></rects>
              <tilted>0</tilted></feature>
            <threshold>-0.0184788107872009</threshold>
            <left_val>0.5687867999076843</left_val>
            <right_node>1</right_node></_>
          <_>
            <!-- node 1 -->
            <feature>
              <rects>
                <_>
                  7 0 11 6 -1.</_>
                <_>
                  7 3 11 3 2.</_></rects>
              <tilted>0</tilted></feature>
            <threshold>-0.1026846989989281</threshold>
            <left_val>0.4217366874217987</left_val>
            <right_val>-0.5479940176010132</right_val></_></_>
        <_>
          <!-- tree 2 -->
          <_>
            <!-- root node -->
            <feature>
              <rects>
                <_>
                  5 12 9 3 -1.</_>
                <_>
                  5 13 9 1 3.</_></rects>
              <tilted>0</tilted></feature>
            <threshold>3.0668789986521006e-004</threshold>
            <left_val>-0.5251201987266541</left_val>
            <right_node>1</right_node></_>
          <_>
            <!-- node 1 -->
            <feature>
              <rects>
                <_>
                  6 13 5 3 -1.</_>
                <_>
                  6 14 5 1 3.</_></rects>
              <tilted>0</tilted></feature>
            <threshold>-1.6363580652978271e-004</threshold>
            <left_val>-0.5113406181335449</left_val>
            <right_val>0.3563250899314880</right_val></_></_>
        <_>
          <!-- tree 3 -->
          <_>
            <!-- root node -->
            <feature>
              <rects>
                <_>
                  7 0 5 2 -1.</_>
                <_>
                  7 1 5 1 2.</_></rects>
              <tilted>0</tilted></feature>
            <threshold>0.0218285098671913</threshold>
            <left_node>1</left_node>
            <right_val>0.6521406173706055</right_val></_>
          <_>
            <!-- node 1 -->
            <feature>
              <rects>
                <_>
                  0 2 16 8 -1.</_>
                <_>
                  4 2 8 8 2.</_></rects>
              <tilted>0</tilted></feature>
            <threshold>-0.1141209974884987</threshold>
            <left_val>0.2301024049520493</left_val>
            <right_val>-0.4658676981925964</right_val></_></_>
        <_>
          <!-- tree 4 -->
          <_>
            <!-- root node -->
            <feature>
              <rects>
                <_>
                  0 9 2 8 -1.</_>
                <_>
                  0 9 1 4 2.</_>
                <_>
                  1 13 1 4 2.</_></rects>
              <tilted>0</tilted></feature>
            <threshold>-6.3692820258438587e-003</threshold>
            <left_val>0.5374829173088074</left_val>
            <right_node>1</right_node></_>
          <_>
            <!-- node 1 -->
            <feature>
              <rects>
                <_>
                  0 12 4 5 -1.</_>
                <_>
                  2 12 2 5 2.</_></rects>
              <tilted>0</tilted></feature>
            <threshold>-0.0203732103109360</threshold>
            <left_val>0.4295277893543243</left_val>
            <right_val>-0.3213090002536774</right_val></_></_>
        <_>
          <!-- tree 5 -->
          <_>
            <!-- root node -->
            <feature>
              <rects>
                <_>
                  10 14 1 3 -1.</_>
                <_>
                  10 15 1 1 3.</_></rects>
              <tilted>0</tilted></feature>
            <threshold>-9.7391800954937935e-004</threshold>
            <left_val>-0.8014863729476929</left_val>
            <right_node>1</right_node></_>
          <_>
            <!-- node 1 -->
            <feature>
              <rects>
                <_>
                  10 12 6 2 -1.</_>
                <_>
                  10 12 3 1 2.</_>
                <_>
                  13 13 3 1 2.</_></rects>
              <tilted>0</tilted></feature>
            <threshold>-1.0081769869429991e-004</threshold>
            <left_val>0.3196791112422943</left_val>
            <right_val>-0.3087481856346130</right_val></_></_>
        <_>
          <!-- tree 6 -->
          <_>
            <!-- root node -->
            <feature>
              <rects>
                <_>
                  10 5 1 4 -1.</_>
                <_>
                  10 7 1 2 2.</_></rects>
              <tilted>0</tilted></feature>
            <threshold>-1.9195559434592724e-003</threshold>
            <left_node>1</left_node>
            <right_val>-0.4441350996494293</right_val></_>
          <_>
            <!-- node 1 -->
            <feature>
              <rects>
                <_>
                  10 12 3 3 -1.</_>
                <_>
                  11 13 1 1 9.</_></rects>
              <tilted>0</tilted></feature>
            <threshold>9.5892716199159622e-003</threshold>
            <left_val>0.2800335884094238</left_val>
            <right_val>-0.7669792771339417</right_val></_></_>
        <_>
          <!-- tree 7 -->
          <_>
            <!-- root node -->
            <feature>
              <rects>
                <_>
                  2 8 13 10 -1.</_>
                <_>
                  2 13 13 5 2.</_></rects>
              <tilted>0</tilted></feature>
            <threshold>0.2430381029844284</threshold>
            <left_node>1</left_node>
            <right_val>-0.9334846735000610</right_val></_>
          <_>
            <!-- node 1 -->
            <feature>
              <rects>
                <_>
                  4 4 10 2 -1.</_>
                <_>
                  4 5 10 1 2.</_></rects>
              <tilted>0</tilted></feature>
            <threshold>-7.4447561928536743e-005</threshold>
            <left_val>0.1680237948894501</left_val>
            <right_val>-0.5376675128936768</right_val></_></_>
        <_>
          <!-- tree 8 -->
          <_>
            <!-- root node -->
            <feature>
              <rects>
                <_>
                  17 0 1 2 -1.</_>
                <_>
                  17 1 1 1 2.</_></rects>
              <tilted>0</tilted></feature>
            <threshold>-7.7005987986922264e-004</threshold>
            <left_val>-0.5129889249801636</left_val>
            <right_node>1</right_node></_>
          <_>
            <!-- node 1 -->
            <feature>
              <rects>
                <_>
                  17 0 1 2 -1.</_>
                <_>
                  17 1 1 1 2.</_></rects>
              <tilted>0</tilted></feature>
            <threshold>2.9866039403714240e-004</threshold>
            <left_val>0.3155249059200287</left_val>
            <right_val>-0.3568376004695892</right_val></_></_>
        <_>
          <!-- tree 9 -->
          <_>
            <!-- root node -->
            <feature>
              <rects>
                <_>
                  1 8 4 8 -1.</_>
                <_>
                  1 8 2 4 2.</_>
                <_>
                  3 12 2 4 2.</_></rects>
              <tilted>0</tilted></feature>
            <threshold>0.0148732000961900</threshold>
            <left_node>1</left_node>
            <right_val>0.3590219020843506</right_val></_>
          <_>
            <!-- node 1 -->
            <feature>
              <rects>
                <_>
                  0 10 3 2 -1.</_>
                <_>
                  1 10 1 2 3.</_></rects>
              <tilted>0</tilted></feature>
            <threshold>-3.0606100335717201e-003</threshold>
            <left_val>0.3185164928436279</left_val>
            <right_val>-0.3829874098300934</right_val></_></_>
        <_>
          <!-- tree 10 -->
          <_>
            <!-- root node -->
            <feature>
              <rects>
                <_>
                  2 1 16 2 -1.</_>
                <_>
                  6 1 8 2 2.</_></rects>
              <tilted>0</tilted></feature>
            <threshold>0.0482820384204388</threshold>
            <left_node>1</left_node>
            <right_val>0.5240811705589294</right_val></_>
          <_>
            <!-- node 1 -->
            <feature>
              <rects>
                <_>
                  2 0 15 12 -1.</_>
                <_>
                  2 3 15 6 2.</_></rects>
              <tilted>0</tilted></feature>
            <threshold>-0.1861072033643723</threshold>
            <left_val>0.3811675906181335</left_val>
            <right_val>-0.3782306015491486</right_val></_></_>
        <_>
          <!-- tree 11 -->
          <_>
            <!-- root node -->
            <feature>
              <rects>
                <_>
                  15 7 3 7 -1.</_>
                <_>
                  16 7 1 7 3.</_></rects>
              <tilted>0</tilted></feature>
            <threshold>-1.3811120297759771e-003</threshold>
            <left_node>1</left_node>
            <right_val>-0.2324706017971039</right_val></_>
          <_>
            <!-- node 1 -->
            <feature>
              <rects>
                <_>
                  11 12 3 2 -1.</_>
                <_>
                  12 12 1 2 3.</_></rects>
              <tilted>0</tilted></feature>
            <threshold>-2.5341880973428488e-003</threshold>
            <left_val>-0.7335733771324158</left_val>
            <right_val>0.4159215986728668</right_val></_></_>
        <_>
          <!-- tree 12 -->
          <_>
            <!-- root node -->
            <feature>
              <rects>
                <_>
                  9 16 4 1 -1.</_>
                <_>
                  10 16 2 1 2.</_></rects>
              <tilted>0</tilted></feature>
            <threshold>-9.0453418670222163e-004</threshold>
            <left_val>-0.4913096129894257</left_val>
            <right_node>1</right_node></_>
          <_>
            <!-- node 1 -->
            <feature>
              <rects>
                <_>
                  13 8 4 10 -1.</_>
                <_>
                  13 8 2 5 2.</_>
                <_>
                  15 13 2 5 2.</_></rects>
              <tilted>0</tilted></feature>
            <threshold>-0.0165385995060205</threshold>
            <left_val>0.5473005771636963</left_val>
            <right_val>-0.0795273110270500</right_val></_></_>
        <_>
          <!-- tree 13 -->
          <_>
            <!-- root node -->
            <feature>
              <rects>
                <_>
                  1 16 16 2 -1.</_>
                <_>
                  5 16 8 2 2.</_></rects>
              <tilted>0</tilted></feature>
            <threshold>-0.0464117601513863</threshold>
            <left_val>0.5521122217178345</left_val>
            <right_node>1</right_node></_>
          <_>
            <!-- node 1 -->
            <feature>
              <rects>
                <_>
                  16 5 2 4 -1.</_>
                <_>
                  17 5 1 4 2.</_></rects>
              <tilted>0</tilted></feature>
            <threshold>-3.2436249312013388e-003</threshold>
            <left_val>0.3458409905433655</left_val>
            <right_val>-0.3218876123428345</right_val></_></_>
        <_>
          <!-- tree 14 -->
          <_>
            <!-- root node -->
            <feature>
              <rects>
                <_>
                  8 15 3 2 -1.</_>
                <_>
                  9 15 1 2 3.</_></rects>
              <tilted>0</tilted></feature>
            <threshold>-1.9856221042573452e-003</threshold>
            <left_val>-0.7634372115135193</left_val>
            <right_node>1</right_node></_>
          <_>
            <!-- node 1 -->
            <feature>
              <rects>
                <_>
                  8 16 3 2 -1.</_>
                <_>
                  8 17 3 1 2.</_></rects>
              <tilted>0</tilted></feature>
            <threshold>-1.0125139961019158e-003</threshold>
            <left_val>0.2766160070896149</left_val>
            <right_val>-0.3002654910087585</right_val></_></_>
        <_>
          <!-- tree 15 -->
          <_>
            <!-- root node -->
            <feature>
              <rects>
                <_>
                  16 5 2 6 -1.</_>
                <_>
                  16 5 1 3 2.</_>
                <_>
                  17 8 1 3 2.</_></rects>
              <tilted>0</tilted></feature>
            <threshold>-4.4811367988586426e-003</threshold>
            <left_node>1</left_node>
            <right_val>-0.1669784039258957</right_val></_>
          <_>
            <!-- node 1 -->
            <feature>
              <rects>
                <_>
                  3 9 3 3 -1.</_>
                <_>
                  4 9 1 3 3.</_></rects>
              <tilted>0</tilted></feature>
            <threshold>4.8466217704117298e-003</threshold>
            <left_val>0.5975247025489807</left_val>
            <right_val>-0.8529214262962341</right_val></_></_>
        <_>
          <!-- tree 16 -->
          <_>
            <!-- root node -->
            <feature>
              <rects>
                <_>
                  11 0 5 2 -1.</_>
                <_>
                  11 1 5 1 2.</_></rects>
              <tilted>0</tilted></feature>
            <threshold>0.0102931698784232</threshold>
            <left_node>1</left_node>
            <right_val>0.5194075107574463</right_val></_>
          <_>
            <!-- node 1 -->
            <feature>
              <rects>
                <_>
                  14 11 4 4 -1.</_>
                <_>
                  16 11 2 4 2.</_></rects>
              <tilted>0</tilted></feature>
            <threshold>0.0195724796503782</threshold>
            <left_val>-0.2862125933170319</left_val>
            <right_val>0.4129441976547241</right_val></_></_>
        <_>
          <!-- tree 17 -->
          <_>
            <!-- root node -->
            <feature>
              <rects>
                <_>
                  15 0 3 1 -1.</_>
                <_>
                  16 0 1 1 3.</_></rects>
              <tilted>0</tilted></feature>
            <threshold>-6.1281578382477164e-004</threshold>
            <left_val>-0.4609636068344116</left_val>
            <right_node>1</right_node></_>
          <_>
            <!-- node 1 -->
            <feature>
              <rects>
                <_>
                  3 6 12 7 -1.</_>
                <_>
                  7 6 4 7 3.</_></rects>
              <tilted>0</tilted></feature>
            <threshold>-0.0164168495684862</threshold>
            <left_val>0.3333953917026520</left_val>
            <right_val>-0.3810735046863556</right_val></_></_>
        <_>
          <!-- tree 18 -->
          <_>
            <!-- root node -->
            <feature>
              <rects>
                <_>
                  10 0 3 3 -1.</_>
                <_>
                  10 1 3 1 3.</_></rects>
              <tilted>0</tilted></feature>
            <threshold>-3.8340920582413673e-003</threshold>
            <left_val>0.4252210855484009</left_val>
            <right_node>1</right_node></_>
          <_>
            <!-- node 1 -->
            <feature>
              <rects>
                <_>
                  7 7 3 2 -1.</_>
                <_>
                  8 7 1 2 3.</_></rects>
              <tilted>0</tilted></feature>
            <threshold>2.4728290736675262e-003</threshold>
            <left_val>-0.3140236139297485</left_val>
            <right_val>0.3837215006351471</right_val></_></_>
        <_>
          <!-- tree 19 -->
          <_>
            <!-- root node -->
            <feature>
              <rects>
                <_>
                  6 16 3 1 -1.</_>
                <_>
                  7 16 1 1 3.</_></rects>
              <tilted>0</tilted></feature>
            <threshold>-5.2334018982946873e-004</threshold>
            <left_val>-0.4639112055301666</left_val>
            <right_node>1</right_node></_>
          <_>
            <!-- node 1 -->
            <feature>
              <rects>
                <_>
                  0 0 2 2 -1.</_>
                <_>
                  0 0 1 1 2.</_>
                <_>
                  1 1 1 1 2.</_></rects>
              <tilted>0</tilted></feature>
            <threshold>-4.3819789425469935e-004</threshold>
            <left_val>-0.3577623963356018</left_val>
            <right_val>0.3172656893730164</right_val></_></_>
        <_>
          <!-- tree 20 -->
          <_>
            <!-- root node -->
            <feature>
              <rects>
                <_>
                  4 11 10 3 -1.</_>
                <_>
                  4 12 10 1 3.</_></rects>
              <tilted>0</tilted></feature>
            <threshold>1.4196879928931594e-003</threshold>
            <left_val>-0.3519203960895538</left_val>
            <right_node>1</right_node></_>
          <_>
            <!-- node 1 -->
            <feature>
              <rects>
                <_>
                  9 8 5 6 -1.</_>
                <_>
                  9 10 5 2 3.</_></rects>
              <tilted>0</tilted></feature>
            <threshold>0.0170921292155981</threshold>
            <left_val>-0.0378637909889221</left_val>
            <right_val>0.6703276038169861</right_val></_></_>
        <_>
          <!-- tree 21 -->
          <_>
            <!-- root node -->
            <feature>
              <rects>
                <_>
                  7 8 5 8 -1.</_>
                <_>
                  7 10 5 4 2.</_></rects>
              <tilted>0</tilted></feature>
            <threshold>-0.0188465006649494</threshold>
            <left_val>0.5931379199028015</left_val>
            <right_node>1</right_node></_>
          <_>
            <!-- node 1 -->
            <feature>
              <rects>
                <_>
                  7 6 2 2 -1.</_>
                <_>
                  7 7 2 1 2.</_></rects>
              <tilted>0</tilted></feature>
            <threshold>-1.0530559666221961e-004</threshold>
            <left_val>0.0106256101280451</left_val>
            <right_val>-0.6294670104980469</right_val></_></_></trees>
      <stage_threshold>-1.8045010566711426</stage_threshold>
      <parent>4</parent>
      <next>-1</next></_>
    <_>
      <!-- stage 6 -->
      <trees>
        <_>
          <!-- tree 0 -->
          <_>
            <!-- root node -->
            <feature>
              <rects>
                <_>
                  3 8 13 9 -1.</_>
                <_>
                  3 11 13 3 3.</_></rects>
              <tilted>0</tilted></feature>
            <threshold>0.1275282055139542</threshold>
            <left_node>1</left_node>
            <right_val>0.5011994838714600</right_val></_>
          <_>
            <!-- node 1 -->
            <feature>
              <rects>
                <_>
                  0 0 18 16 -1.</_>
                <_>
                  0 4 18 8 2.</_></rects>
              <tilted>0</tilted></feature>
            <threshold>-0.4647809863090515</threshold>
            <left_val>0.5926102995872498</left_val>
            <right_val>-0.5509024262428284</right_val></_></_>
        <_>
          <!-- tree 1 -->
          <_>
            <!-- root node -->
            <feature>
              <rects>
                <_>
                  8 1 10 2 -1.</_>
                <_>
                  13 1 5 2 2.</_></rects>
              <tilted>0</tilted></feature>
            <threshold>-0.0327091701328754</threshold>
            <left_val>0.6058306097984314</left_val>
            <right_node>1</right_node></_>
          <_>
            <!-- node 1 -->
            <feature>
              <rects>
                <_>
                  12 1 4 2 -1.</_>
                <_>
                  12 2 4 1 2.</_></rects>
              <tilted>0</tilted></feature>
            <threshold>-5.3500831127166748e-003</threshold>
            <left_val>0.2657809853553772</left_val>
            <right_val>-0.5382382869720459</right_val></_></_>
        <_>
          <!-- tree 2 -->
          <_>
            <!-- root node -->
            <feature>
              <rects>
                <_>
                  0 3 2 11 -1.</_>
                <_>
                  1 3 1 11 2.</_></rects>
              <tilted>0</tilted></feature>
            <threshold>0.0201347805559635</threshold>
            <left_node>1</left_node>
            <right_val>0.6012786030769348</right_val></_>
          <_>
            <!-- node 1 -->
            <feature>
              <rects>
                <_>
                  1 3 17 6 -1.</_>
                <_>
                  1 6 17 3 2.</_></rects>
              <tilted>0</tilted></feature>
            <threshold>-0.1109815016388893</threshold>
            <left_val>0.1633863002061844</left_val>
            <right_val>-0.5208200216293335</right_val></_></_>
        <_>
          <!-- tree 3 -->
          <_>
            <!-- root node -->
            <feature>
              <rects>
                <_>
                  0 17 18 1 -1.</_>
                <_>
                  6 17 6 1 3.</_></rects>
              <tilted>0</tilted></feature>
            <threshold>-0.0447731092572212</threshold>
            <left_val>0.5756177902221680</left_val>
            <right_node>1</right_node></_>
          <_>
            <!-- node 1 -->
            <feature>
              <rects>
                <_>
                  2 14 14 4 -1.</_>
                <_>
                  2 16 14 2 2.</_></rects>
              <tilted>0</tilted></feature>
            <threshold>-0.0380776599049568</threshold>
            <left_val>0.2241887003183365</left_val>
            <right_val>-0.4544484913349152</right_val></_></_>
        <_>
          <!-- tree 4 -->
          <_>
            <!-- root node -->
            <feature>
              <rects>
                <_>
                  3 7 3 6 -1.</_>
                <_>
                  3 9 3 2 3.</_></rects>
              <tilted>0</tilted></feature>
            <threshold>6.5416768193244934e-003</threshold>
            <left_node>1</left_node>
            <right_val>0.4217877089977264</right_val></_>
          <_>
            <!-- node 1 -->
            <feature>
              <rects>
                <_>
                  5 6 5 4 -1.</_>
                <_>
                  5 8 5 2 2.</_></rects>
              <tilted>0</tilted></feature>
            <threshold>-0.0135724898427725</threshold>
            <left_val>0.1441736966371536</left_val>
            <right_val>-0.4894736111164093</right_val></_></_>
        <_>
          <!-- tree 5 -->
          <_>
            <!-- root node -->
            <feature>
              <rects>
                <_>
                  9 13 3 3 -1.</_>
                <_>
                  10 14 1 1 9.</_></rects>
              <tilted>0</tilted></feature>
            <threshold>6.4051109366118908e-003</threshold>
            <left_node>1</left_node>
            <right_val>-0.7238985896110535</right_val></_>
          <_>
            <!-- node 1 -->
            <feature>
              <rects>
                <_>
                  3 4 8 8 -1.</_>
                <_>
                  7 4 4 8 2.</_></rects>
              <tilted>0</tilted></feature>
            <threshold>0.0117976898327470</threshold>
            <left_val>0.2148859947919846</left_val>
            <right_val>-0.6331126093864441</right_val></_></_>
        <_>
          <!-- tree 6 -->
          <_>
            <!-- root node -->
            <feature>
              <rects>
                <_>
                  14 14 4 2 -1.</_>
                <_>
                  15 14 2 2 2.</_></rects>
              <tilted>0</tilted></feature>
            <threshold>3.1166770495474339e-003</threshold>
            <left_node>1</left_node>
            <right_val>0.5081052780151367</right_val></_>
          <_>
            <!-- node 1 -->
            <feature>
              <rects>
                <_>
                  7 0 1 2 -1.</_>
                <_>
                  7 1 1 1 2.</_></rects>
              <tilted>0</tilted></feature>
            <threshold>-2.5400349404662848e-003</threshold>
            <left_val>0.4320521056652069</left_val>
            <right_val>-0.3094002902507782</right_val></_></_>
        <_>
          <!-- tree 7 -->
          <_>
            <!-- root node -->
            <feature>
              <rects>
                <_>
                  4 0 5 2 -1.</_>
                <_>
                  4 1 5 1 2.</_></rects>
              <tilted>0</tilted></feature>
            <threshold>0.0179283805191517</threshold>
            <left_node>1</left_node>
            <right_val>0.6466674208641052</right_val></_>
          <_>
            <!-- node 1 -->
            <feature>
              <rects>
                <_>
                  15 12 3 1 -1.</_>
                <_>
                  16 12 1 1 3.</_></rects>
              <tilted>0</tilted></feature>
            <threshold>-8.8700407650321722e-004</threshold>
            <left_val>0.2825286984443665</left_val>
            <right_val>-0.3145017921924591</right_val></_></_>
        <_>
          <!-- tree 8 -->
          <_>
            <!-- root node -->
            <feature>
              <rects>
                <_>
                  8 14 3 3 -1.</_>
                <_>
                  9 15 1 1 9.</_></rects>
              <tilted>0</tilted></feature>
            <threshold>-3.2108339946717024e-003</threshold>
            <left_val>-0.7153534293174744</left_val>
            <right_node>1</right_node></_>
          <_>
            <!-- node 1 -->
            <feature>
              <rects>
                <_>
                  5 6 12 7 -1.</_>
                <_>
                  11 6 6 7 2.</_></rects>
              <tilted>0</tilted></feature>
            <threshold>-0.0502451211214066</threshold>
            <left_val>-0.8503863811492920</left_val>
            <right_val>0.1855197995901108</right_val></_></_>
        <_>
          <!-- tree 9 -->
          <_>
            <!-- root node -->
            <feature>
              <rects>
                <_>
                  5 0 2 3 -1.</_>
                <_>
                  5 1 2 1 3.</_></rects>
              <tilted>0</tilted></feature>
            <threshold>-2.8135429602116346e-003</threshold>
            <left_val>0.4042981863021851</left_val>
            <right_node>1</right_node></_>
          <_>
            <!-- node 1 -->
            <feature>
              <rects>
                <_>
                  3 14 2 4 -1.</_>
                <_>
                  3 15 2 2 2.</_></rects>
              <tilted>0</tilted></feature>
            <threshold>-2.8463760390877724e-003</threshold>
            <left_val>0.3700438141822815</left_val>
            <right_val>-0.3474341034889221</right_val></_></_>
        <_>
          <!-- tree 10 -->
          <_>
            <!-- root node -->
            <feature>
              <rects>
                <_>
                  11 0 3 5 -1.</_>
                <_>
                  12 0 1 5 3.</_></rects>
              <tilted>0</tilted></feature>
            <threshold>-3.6669829860329628e-003</threshold>
            <left_node>1</left_node>
            <right_val>-0.1600666940212250</right_val></_>
          <_>
            <!-- node 1 -->
            <feature>
              <rects>
                <_>
                  6 0 6 12 -1.</_>
                <_>
                  8 0 2 12 3.</_></rects>
              <tilted>0</tilted></feature>
            <threshold>0.0302056800574064</threshold>
            <left_val>0.5371677875518799</left_val>
            <right_val>-0.8096076250076294</right_val></_></_>
        <_>
          <!-- tree 11 -->
          <_>
            <!-- root node -->
            <feature>
              <rects>
                <_>
                  13 11 2 2 -1.</_>
                <_>
                  13 11 1 1 2.</_>
                <_>
                  14 12 1 1 2.</_></rects>
              <tilted>0</tilted></feature>
            <threshold>5.3908751579001546e-004</threshold>
            <left_node>1</left_node>
            <right_val>-0.5383914709091187</right_val></_>
          <_>
            <!-- node 1 -->
            <feature>
              <rects>
                <_>
                  9 14 3 2 -1.</_>
                <_>
                  10 14 1 2 3.</_></rects>
              <tilted>0</tilted></feature>
            <threshold>-1.2940110173076391e-003</threshold>
            <left_val>-0.5084028244018555</left_val>
            <right_val>0.2441807985305786</right_val></_></_>
        <_>
          <!-- tree 12 -->
          <_>
            <!-- root node -->
            <feature>
              <rects>
                <_>
                  8 5 3 4 -1.</_>
                <_>
                  9 5 1 4 3.</_></rects>
              <tilted>0</tilted></feature>
            <threshold>1.7228790093213320e-003</threshold>
            <left_node>1</left_node>
            <right_val>0.3289557099342346</right_val></_>
          <_>
            <!-- node 1 -->
            <feature>
              <rects>
                <_>
                  4 2 3 5 -1.</_>
                <_>
                  5 2 1 5 3.</_></rects>
              <tilted>0</tilted></feature>
            <threshold>-5.4703298956155777e-003</threshold>
            <left_val>0.4103013873100281</left_val>
            <right_val>-0.3291769027709961</right_val></_></_>
        <_>
          <!-- tree 13 -->
          <_>
            <!-- root node -->
            <feature>
              <rects>
                <_>
                  8 1 1 16 -1.</_>
                <_>
                  8 5 1 8 2.</_></rects>
              <tilted>0</tilted></feature>
            <threshold>-6.2293051742017269e-003</threshold>
            <left_node>1</left_node>
            <right_val>-0.5503267049789429</right_val></_>
          <_>
            <!-- node 1 -->
            <feature>
              <rects>
                <_>
                  6 10 6 7 -1.</_>
                <_>
                  9 10 3 7 2.</_></rects>
              <tilted>0</tilted></feature>
            <threshold>0.0479020588099957</threshold>
            <left_val>0.1862726062536240</left_val>
            <right_val>-0.8765326142311096</right_val></_></_>
        <_>
          <!-- tree 14 -->
          <_>
            <!-- root node -->
            <feature>
              <rects>
                <_>
                  14 2 2 2 -1.</_>
                <_>
                  14 2 1 1 2.</_>
                <_>
                  15 3 1 1 2.</_></rects>
              <tilted>0</tilted></feature>
            <threshold>-1.7800669884309173e-003</threshold>
            <left_val>0.5835419893264771</left_val>
            <right_node>1</right_node></_>
          <_>
            <!-- node 1 -->
            <feature>
              <rects>
                <_>
                  12 6 3 3 -1.</_>
                <_>
                  13 6 1 3 3.</_></rects>
              <tilted>0</tilted></feature>
            <threshold>-1.4607040211558342e-003</threshold>
            <left_val>0.2558225989341736</left_val>
            <right_val>-0.3108757138252258</right_val></_></_>
        <_>
          <!-- tree 15 -->
          <_>
            <!-- root node -->
            <feature>
              <rects>
                <_>
                  16 0 2 1 -1.</_>
                <_>
                  17 0 1 1 2.</_></rects>
              <tilted>0</tilted></feature>
            <threshold>-8.3489192184060812e-004</threshold>
            <left_val>-0.5378124713897705</left_val>
            <right_node>1</right_node></_>
          <_>
            <!-- node 1 -->
            <feature>
              <rects>
                <_>
                  0 3 2 15 -1.</_>
                <_>
                  1 3 1 15 2.</_></rects>
              <tilted>0</tilted></feature>
            <threshold>0.0111053502187133</threshold>
            <left_val>-0.0366587601602077</left_val>
            <right_val>0.5677412748336792</right_val></_></_>
        <_>
          <!-- tree 16 -->
          <_>
            <!-- root node -->
            <feature>
              <rects>
                <_>
                  0 8 4 4 -1.</_>
                <_>
                  2 8 2 4 2.</_></rects>
              <tilted>0</tilted></feature>
            <threshold>-8.3646709099411964e-003</threshold>
            <left_val>0.2975094020366669</left_val>
            <right_node>1</right_node></_>
          <_>
            <!-- node 1 -->
            <feature>
              <rects>
                <_>
                  0 2 10 1 -1.</_>
                <_>
                  5 2 5 1 2.</_></rects>
              <tilted>0</tilted></feature>
            <threshold>0.0338673591613770</threshold>
            <left_val>-0.3650256097316742</left_val>
            <right_val>0.6770642995834351</right_val></_></_>
        <_>
          <!-- tree 17 -->
          <_>
            <!-- root node -->
            <feature>
              <rects>
                <_>
                  0 0 2 2 -1.</_>
                <_>
                  0 0 1 1 2.</_>
                <_>
                  1 1 1 1 2.</_></rects>
              <tilted>0</tilted></feature>
            <threshold>3.9012159686535597e-004</threshold>
            <left_node>1</left_node>
            <right_val>-0.4305131137371063</right_val></_>
          <_>
            <!-- node 1 -->
            <feature>
              <rects>
                <_>
                  5 15 2 1 -1.</_>
                <_>
                  6 15 1 1 2.</_></rects>
              <tilted>0</tilted></feature>
            <threshold>-4.3975599692203104e-004</threshold>
            <left_val>-0.3464150130748749</left_val>
            <right_val>0.3316901028156281</right_val></_></_>
        <_>
          <!-- tree 18 -->
          <_>
            <!-- root node -->
            <feature>
              <rects>
                <_>
                  6 11 4 3 -1.</_>
                <_>
                  6 12 4 1 3.</_></rects>
              <tilted>0</tilted></feature>
            <threshold>4.6621818910352886e-004</threshold>
            <left_val>-0.3517788946628571</left_val>
            <right_node>1</right_node></_>
          <_>
            <!-- node 1 -->
            <feature>
              <rects>
                <_>
                  5 1 2 8 -1.</_>
                <_>
                  5 5 2 4 2.</_></rects>
              <tilted>0</tilted></feature>
            <threshold>-0.0216341800987720</threshold>
            <left_val>0.3998225927352905</left_val>
            <right_val>-0.2247572988271713</right_val></_></_>
        <_>
          <!-- tree 19 -->
          <_>
            <!-- root node -->
            <feature>
              <rects>
                <_>
                  16 0 2 14 -1.</_>
                <_>
                  17 0 1 14 2.</_></rects>
              <tilted>0</tilted></feature>
            <threshold>-0.0189144890755415</threshold>
            <left_val>0.5213189721107483</left_val>
            <right_node>1</right_node></_>
          <_>
            <!-- node 1 -->
            <feature>
              <rects>
                <_>
                  15 10 3 8 -1.</_>
                <_>
                  15 14 3 4 2.</_></rects>
              <tilted>0</tilted></feature>
            <threshold>0.0160641204565763</threshold>
            <left_val>-0.2899346947669983</left_val>
            <right_val>0.4753150939941406</right_val></_></_>
        <_>
          <!-- tree 20 -->
          <_>
            <!-- root node -->
            <feature>
              <rects>
                <_>
                  14 10 3 8 -1.</_>
                <_>
                  14 14 3 4 2.</_></rects>
              <tilted>0</tilted></feature>
            <threshold>-0.0174623001366854</threshold>
            <left_val>0.3430208861827850</left_val>
            <right_node>1</right_node></_>
          <_>
            <!-- node 1 -->
            <feature>
              <rects>
                <_>
                  16 8 2 6 -1.</_>
                <_>
                  17 8 1 6 2.</_></rects>
              <tilted>0</tilted></feature>
            <threshold>5.6420038454234600e-003</threshold>
            <left_val>-0.4499359130859375</left_val>
            <right_val>0.2816661894321442</right_val></_></_>
        <_>
          <!-- tree 21 -->
          <_>
            <!-- root node -->
            <feature>
              <rects>
                <_>
                  2 16 16 2 -1.</_>
                <_>
                  10 16 8 2 2.</_></rects>
              <tilted>0</tilted></feature>
            <threshold>0.0684573873877525</threshold>
            <left_node>1</left_node>
            <right_val>0.6576691865921021</right_val></_>
          <_>
            <!-- node 1 -->
            <feature>
              <rects>
                <_>
                  8 9 3 1 -1.</_>
                <_>
                  9 9 1 1 3.</_></rects>
              <tilted>0</tilted></feature>
            <threshold>-3.6971768713556230e-004</threshold>
            <left_val>0.1783355027437210</left_val>
            <right_val>-0.3618544042110443</right_val></_></_>
        <_>
          <!-- tree 22 -->
          <_>
            <!-- root node -->
            <feature>
              <rects>
                <_>
                  1 4 16 4 -1.</_>
                <_>
                  9 4 8 4 2.</_></rects>
              <tilted>0</tilted></feature>
            <threshold>0.1224329024553299</threshold>
            <left_node>1</left_node>
            <right_val>-0.8742945194244385</right_val></_>
          <_>
            <!-- node 1 -->
            <feature>
              <rects>
                <_>
                  5 10 3 6 -1.</_>
                <_>
                  6 10 1 6 3.</_></rects>
              <tilted>0</tilted></feature>
            <threshold>6.9417348131537437e-003</threshold>
            <left_val>0.1629751026630402</left_val>
            <right_val>-0.8068115115165710</right_val></_></_>
        <_>
          <!-- tree 23 -->
          <_>
            <!-- root node -->
            <feature>
              <rects>
                <_>
                  3 13 4 4 -1.</_>
                <_>
                  3 13 2 2 2.</_>
                <_>
                  5 15 2 2 2.</_></rects>
              <tilted>0</tilted></feature>
            <threshold>-0.0121378097683191</threshold>
            <left_val>0.6885359287261963</left_val>
            <right_node>1</right_node></_>
          <_>
            <!-- node 1 -->
            <feature>
              <rects>
                <_>
                  13 2 4 2 -1.</_>
                <_>
                  13 2 2 1 2.</_>
                <_>
                  15 3 2 1 2.</_></rects>
              <tilted>0</tilted></feature>
            <threshold>2.6401660870760679e-003</threshold>
            <left_val>-0.2711508870124817</left_val>
            <right_val>0.3432958126068115</right_val></_></_></trees>
      <stage_threshold>-1.8620560169219971</stage_threshold>
      <parent>5</parent>
      <next>-1</next></_>
    <_>
      <!-- stage 7 -->
      <trees>
        <_>
          <!-- tree 0 -->
          <_>
            <!-- root node -->
            <feature>
              <rects>
                <_>
                  8 6 2 6 -1.</_>
                <_>
                  8 8 2 2 3.</_></rects>
              <tilted>0</tilted></feature>
            <threshold>-0.0124021200463176</threshold>
            <left_node>1</left_node>
            <right_val>-0.4119104146957398</right_val></_>
          <_>
            <!-- node 1 -->
            <feature>
              <rects>
                <_>
                  5 3 8 14 -1.</_>
                <_>
                  5 10 8 7 2.</_></rects>
              <tilted>0</tilted></feature>
            <threshold>-0.0158302802592516</threshold>
            <left_val>-0.5452737808227539</left_val>
            <right_val>0.4250595867633820</right_val></_></_>
        <_>
          <!-- tree 1 -->
          <_>
            <!-- root node -->
            <feature>
              <rects>
                <_>
                  0 3 6 1 -1.</_>
                <_>
                  3 3 3 1 2.</_></rects>
              <tilted>0</tilted></feature>
            <threshold>0.0165708791464567</threshold>
            <left_node>1</left_node>
            <right_val>0.6534926295280457</right_val></_>
          <_>
            <!-- node 1 -->
            <feature>
              <rects>
                <_>
                  2 0 3 6 -1.</_>
                <_>
                  2 3 3 3 2.</_></rects>
              <tilted>0</tilted></feature>
            <threshold>-0.0258465502411127</threshold>
            <left_val>0.2990917861461639</left_val>
            <right_val>-0.3663964867591858</right_val></_></_>
        <_>
          <!-- tree 2 -->
          <_>
            <!-- root node -->
            <feature>
              <rects>
                <_>
                  1 7 4 6 -1.</_>
                <_>
                  1 7 2 3 2.</_>
                <_>
                  3 10 2 3 2.</_></rects>
              <tilted>0</tilted></feature>
            <threshold>0.0166673008352518</threshold>
            <left_val>-0.1954516023397446</left_val>
            <right_node>1</right_node></_>
          <_>
            <!-- node 1 -->
            <feature>
              <rects>
                <_>
                  2 8 2 6 -1.</_>
                <_>
                  2 10 2 2 3.</_></rects>
              <tilted>0</tilted></feature>
            <threshold>-9.0556772192940116e-004</threshold>
            <left_val>-0.5177447199821472</left_val>
            <right_val>0.5749710202217102</right_val></_></_>
        <_>
          <!-- tree 3 -->
          <_>
            <!-- root node -->
            <feature>
              <rects>
                <_>
                  10 13 4 2 -1.</_>
                <_>
                  10 13 2 1 2.</_>
                <_>
                  12 14 2 1 2.</_></rects>
              <tilted>0</tilted></feature>
            <threshold>9.3910377472639084e-004</threshold>
            <left_node>1</left_node>
            <right_val>-0.5307922959327698</right_val></_>
          <_>
            <!-- node 1 -->
            <feature>
              <rects>
                <_>
                  1 7 17 10 -1.</_>
                <_>
                  1 12 17 5 2.</_></rects>
              <tilted>0</tilted></feature>
            <threshold>0.3307952880859375</threshold>
            <left_val>0.2206887006759644</left_val>
            <right_val>-0.7862722277641296</right_val></_></_>
        <_>
          <!-- tree 4 -->
          <_>
            <!-- root node -->
            <feature>
              <rects>
                <_>
                  4 5 10 9 -1.</_>
                <_>
                  9 5 5 9 2.</_></rects>
              <tilted>0</tilted></feature>
            <threshold>0.0565340891480446</threshold>
            <left_node>1</left_node>
            <right_val>-0.6637424826622009</right_val></_>
          <_>
            <!-- node 1 -->
            <feature>
              <rects>
                <_>
                  4 5 10 10 -1.</_>
                <_>
                  9 5 5 10 2.</_></rects>
              <tilted>0</tilted></feature>
            <threshold>-0.0711755976080894</threshold>
            <left_val>-0.5061537027359009</left_val>
            <right_val>0.1801881939172745</right_val></_></_>
        <_>
          <!-- tree 5 -->
          <_>
            <!-- root node -->
            <feature>
              <rects>
                <_>
                  2 3 13 12 -1.</_>
                <_>
                  2 6 13 6 2.</_></rects>
              <tilted>0</tilted></feature>
            <threshold>-0.0774753466248512</threshold>
            <left_node>1</left_node>
            <right_val>-0.5184944272041321</right_val></_>
          <_>
            <!-- node 1 -->
            <feature>
              <rects>
                <_>
                  0 4 2 13 -1.</_>
                <_>
                  1 4 1 13 2.</_></rects>
              <tilted>0</tilted></feature>
            <threshold>-0.0191318895667791</threshold>
            <left_val>0.5764877796173096</left_val>
            <right_val>-0.0532029904425144</right_val></_></_>
        <_>
          <!-- tree 6 -->
          <_>
            <!-- root node -->
            <feature>
              <rects>
                <_>
                  0 3 2 9 -1.</_>
                <_>
                  1 3 1 9 2.</_></rects>
              <tilted>0</tilted></feature>
            <threshold>7.2632902301847935e-003</threshold>
            <left_node>1</left_node>
            <right_val>0.3829283118247986</right_val></_>
          <_>
            <!-- node 1 -->
            <feature>
              <rects>
                <_>
                  10 13 8 3 -1.</_>
                <_>
                  12 13 4 3 2.</_></rects>
              <tilted>0</tilted></feature>
            <threshold>-0.0149048203602433</threshold>
            <left_val>0.3192844986915588</left_val>
            <right_val>-0.3873878121376038</right_val></_></_>
        <_>
          <!-- tree 7 -->
          <_>
            <!-- root node -->
            <feature>
              <rects>
                <_>
                  0 0 4 1 -1.</_>
                <_>
                  2 0 2 1 2.</_></rects>
              <tilted>0</tilted></feature>
            <threshold>1.5173440333455801e-003</threshold>
            <left_node>1</left_node>
            <right_val>-0.4148617088794708</right_val></_>
          <_>
            <!-- node 1 -->
            <feature>
              <rects>
                <_>
                  12 7 6 8 -1.</_>
                <_>
                  12 7 3 4 2.</_>
                <_>
                  15 11 3 4 2.</_></rects>
              <tilted>0</tilted></feature>
            <threshold>-0.0309969894587994</threshold>
            <left_val>0.4825626015663147</left_val>
            <right_val>-0.0447249598801136</right_val></_></_>
        <_>
          <!-- tree 8 -->
          <_>
            <!-- root node -->
            <feature>
              <rects>
                <_>
