<?xml version="1.0"?>
<opencv_storage>
<output type_id="opencv-haar-classifier">
  <size>
    18 30</size>
  <stages>
    <_>
      <!-- stage 0 -->
      <trees>
        <_>
          <!-- tree 0 -->
          <_>
            <!-- root node -->
            <feature>
              <rects>
                <_>
                  7 27 3 2 -1.</_>
                <_>
                  7 28 3 1 2.</_></rects>
              <tilted>0</tilted></feature>
            <threshold>-2.3217929992824793e-004</threshold>
            <left_node>1</left_node>
            <right_val>-0.7369728088378906</right_val></_>
          <_>
            <!-- node 1 -->
            <feature>
              <rects>
                <_>
                  5 15 8 6 -1.</_>
                <_>
                  9 15 4 6 2.</_></rects>
              <tilted>0</tilted></feature>
            <threshold>-0.0196431800723076</threshold>
            <left_val>-0.8044524192810059</left_val>
            <right_val>0.7074556946754456</right_val></_></_>
        <_>
          <!-- tree 1 -->
          <_>
            <!-- root node -->
            <feature>
              <rects>
                <_>
                  10 20 2 10 -1.</_>
                <_>
                  10 25 2 5 2.</_></rects>
              <tilted>0</tilted></feature>
            <threshold>3.6476159584708512e-004</threshold>
            <left_node>1</left_node>
            <right_val>-0.8704699277877808</right_val></_>
          <_>
            <!-- node 1 -->
            <feature>
              <rects>
                <_>
                  8 3 4 6 -1.</_>
                <_>
                  9 3 2 6 2.</_></rects>
              <tilted>0</tilted></feature>
            <threshold>-3.5463580861687660e-003</threshold>
            <left_val>0.9406374096870422</left_val>
            <right_val>-0.0430203415453434</right_val></_></_>
        <_>
          <!-- tree 2 -->
          <_>
            <!-- root node -->
            <feature>
              <rects>
                <_>
                  14 9 3 5 -1.</_>
                <_>
                  15 9 1 5 3.</_></rects>
              <tilted>0</tilted></feature>
            <threshold>3.9295991882681847e-003</threshold>
            <left_node>1</left_node>
            <right_val>0.9354717135429382</right_val></_>
          <_>
            <!-- node 1 -->
            <feature>
              <rects>
                <_>
                  14 7 3 7 -1.</_>
                <_>
                  15 7 1 7 3.</_></rects>
              <tilted>0</tilted></feature>
            <threshold>-3.9167110808193684e-003</threshold>
            <left_val>0.7515187263488770</left_val>
            <right_val>-0.5650184750556946</right_val></_></_>
        <_>
          <!-- tree 3 -->
          <_>
            <!-- root node -->
            <feature>
              <rects>
                <_>
                  3 0 11 4 -1.</_>
                <_>
                  3 2 11 2 2.</_></rects>
              <tilted>0</tilted></feature>
            <threshold>-0.0143338702619076</threshold>
            <left_val>0.7637407183647156</left_val>
            <right_node>1</right_node></_>
          <_>
            <!-- node 1 -->
            <feature>
              <rects>
                <_>
                  0 14 4 8 -1.</_>
                <_>
                  1 14 2 8 2.</_></rects>
              <tilted>0</tilted></feature>
            <threshold>9.6373334527015686e-003</threshold>
            <left_val>-0.6824114918708801</left_val>
            <right_val>0.8203154802322388</right_val></_></_>
        <_>
          <!-- tree 4 -->
          <_>
            <!-- root node -->
            <feature>
              <rects>
                <_>
                  11 7 4 4 -1.</_>
                <_>
                  12 7 2 4 2.</_></rects>
              <tilted>0</tilted></feature>
            <threshold>-3.7759279366582632e-003</threshold>
            <left_val>0.9016687273979187</left_val>
            <right_node>1</right_node></_>
          <_>
            <!-- node 1 -->
            <feature>
              <rects>
                <_>
                  11 10 4 2 -1.</_>
                <_>
                  12 10 2 2 2.</_></rects>
              <tilted>0</tilted></feature>
            <threshold>1.6997830243781209e-003</threshold>
            <left_val>-0.6137607097625732</left_val>
            <right_val>0.6641950011253357</right_val></_></_></trees>
      <stage_threshold>-2.0224809646606445</stage_threshold>
      <parent>-1</parent>
      <next>-1</next></_>
    <_>
      <!-- stage 1 -->
      <trees>
        <_>
          <!-- tree 0 -->
          <_>
            <!-- root node -->
            <feature>
              <rects>
                <_>
                  10 26 2 4 -1.</_>
                <_>
                  10 28 2 2 2.</_></rects>
              <tilted>0</tilted></feature>
            <threshold>-7.8268710058182478e-004</threshold>
            <left_node>1</left_node>
            <right_val>-0.6615902185440064</right_val></_>
          <_>
            <!-- node 1 -->
            <feature>
              <rects>
                <_>
                  7 9 5 3 -1.</_>
                <_>
                  7 10 5 1 3.</_></rects>
              <tilted>0</tilted></feature>
            <threshold>4.2891329940175638e-005</threshold>
            <left_val>-0.3517501950263977</left_val>
            <right_val>0.6913334131240845</right_val></_></_>
        <_>
          <!-- tree 1 -->
          <_>
            <!-- root node -->
            <feature>
              <rects>
                <_>
                  2 11 8 4 -1.</_>
                <_>
                  2 11 4 2 2.</_>
                <_>
                  6 13 4 2 2.</_></rects>
              <tilted>0</tilted></feature>
            <threshold>4.3134978041052818e-003</threshold>
            <left_node>1</left_node>
            <right_val>0.5786194801330566</right_val></_>
          <_>
            <!-- node 1 -->
            <feature>
              <rects>
                <_>
                  11 5 3 2 -1.</_>
                <_>
                  12 5 1 2 3.</_></rects>
              <tilted>0</tilted></feature>
            <threshold>5.1236390136182308e-003</threshold>
            <left_val>-0.5241852998733521</left_val>
            <right_val>0.9330248832702637</right_val></_></_>
        <_>
          <!-- tree 2 -->
          <_>
            <!-- root node -->
            <feature>
              <rects>
                <_>
                  6 24 2 4 -1.</_>
                <_>
                  6 26 2 2 2.</_></rects>
              <tilted>0</tilted></feature>
            <threshold>-2.1622199710691348e-005</threshold>
            <left_node>1</left_node>
            <right_val>-0.6589965820312500</right_val></_>
          <_>
            <!-- node 1 -->
            <feature>
              <rects>
                <_>
                  7 24 1 6 -1.</_>
                <_>
                  7 26 1 2 3.</_></rects>
              <tilted>0</tilted></feature>
            <threshold>-6.0858548386022449e-004</threshold>
            <left_val>-0.5212873816490173</left_val>
            <right_val>0.6369314789772034</right_val></_></_>
        <_>
          <!-- tree 3 -->
          <_>
            <!-- root node -->
            <feature>
              <rects>
                <_>
                  7 5 7 12 -1.</_>
                <_>
                  7 8 7 6 2.</_></rects>
              <tilted>0</tilted></feature>
            <threshold>4.3877740390598774e-003</threshold>
            <left_node>1</left_node>
            <right_val>-0.6718472838401794</right_val></_>
          <_>
            <!-- node 1 -->
            <feature>
              <rects>
                <_>
                  6 13 6 9 -1.</_>
                <_>
                  8 16 2 3 9.</_></rects>
              <tilted>0</tilted></feature>
            <threshold>7.7417050488293171e-003</threshold>
            <left_val>0.5813611745834351</left_val>
            <right_val>-0.5196477174758911</right_val></_></_>
        <_>
          <!-- tree 4 -->
          <_>
            <!-- root node -->
            <feature>
              <rects>
                <_>
                  0 17 3 1 -1.</_>
                <_>
                  1 17 1 1 3.</_></rects>
              <tilted>0</tilted></feature>
            <threshold>5.6666042655706406e-004</threshold>
            <left_node>1</left_node>
            <right_val>0.6527336835861206</right_val></_>
          <_>
            <!-- node 1 -->
            <feature>
              <rects>
                <_>
                  0 13 3 8 -1.</_>
                <_>
                  1 13 1 8 3.</_></rects>
              <tilted>0</tilted></feature>
            <threshold>-5.0894408486783504e-003</threshold>
            <left_val>0.5030555725097656</left_val>
            <right_val>-0.6771854758262634</right_val></_></_>
        <_>
          <!-- tree 5 -->
          <_>
            <!-- root node -->
            <feature>
              <rects>
                <_>
                  8 5 3 4 -1.</_>
                <_>
                  9 5 1 4 3.</_></rects>
              <tilted>0</tilted></feature>
            <threshold>-4.3861158192157745e-003</threshold>
            <left_val>0.8436334729194641</left_val>
            <right_node>1</right_node></_>
          <_>
            <!-- node 1 -->
            <feature>
              <rects>
                <_>
                  8 2 3 6 -1.</_>
                <_>
                  9 2 1 6 3.</_></rects>
              <tilted>0</tilted></feature>
            <threshold>8.6496062576770782e-003</threshold>
            <left_val>-0.4827041029930115</left_val>
            <right_val>0.8912734985351563</right_val></_></_>
        <_>
          <!-- tree 6 -->
          <_>
            <!-- root node -->
            <feature>
              <rects>
                <_>
                  7 0 8 4 -1.</_>
                <_>
                  7 2 8 2 2.</_></rects>
              <tilted>0</tilted></feature>
            <threshold>-0.0168549604713917</threshold>
            <left_val>0.7636690735816956</left_val>
            <right_node>1</right_node></_>
          <_>
            <!-- node 1 -->
            <feature>
              <rects>
                <_>
                  14 11 4 5 -1.</_>
                <_>
                  15 11 2 5 2.</_></rects>
              <tilted>0</tilted></feature>
            <threshold>7.9693347215652466e-003</threshold>
            <left_val>-0.4841378927230835</left_val>
            <right_val>0.6934484243392944</right_val></_></_>
        <_>
          <!-- tree 7 -->
          <_>
            <!-- root node -->
            <feature>
              <rects>
                <_>
                  11 25 1 2 -1.</_>
                <_>
                  11 26 1 1 2.</_></rects>
              <tilted>0</tilted></feature>
            <threshold>-1.4979699699324556e-005</threshold>
            <left_node>1</left_node>
            <right_val>-0.5088909864425659</right_val></_>
          <_>
            <!-- node 1 -->
            <feature>
              <rects>
                <_>
                  8 4 6 26 -1.</_>
                <_>
                  8 17 6 13 2.</_></rects>
              <tilted>0</tilted></feature>
            <threshold>0.1221435964107513</threshold>
            <left_val>0.5724393725395203</left_val>
            <right_val>-0.9025248885154724</right_val></_></_>
        <_>
          <!-- tree 8 -->
          <_>
            <!-- root node -->
            <feature>
              <rects>
                <_>
                  14 18 2 12 -1.</_>
                <_>
                  14 22 2 4 3.</_></rects>
              <tilted>0</tilted></feature>
            <threshold>8.0142362276092172e-004</threshold>
            <left_val>-0.5389248728752136</left_val>
            <right_node>1</right_node></_>
          <_>
            <!-- node 1 -->
            <feature>
              <rects>
                <_>
                  16 15 2 8 -1.</_>
                <_>
                  16 15 1 4 2.</_>
                <_>
                  17 19 1 4 2.</_></rects>
              <tilted>0</tilted></feature>
            <threshold>-2.2485828958451748e-003</threshold>
            <left_val>0.9128805994987488</left_val>
            <right_val>0.0113521004095674</right_val></_></_></trees>
      <stage_threshold>-1.9766680002212524</stage_threshold>
      <parent>0</parent>
      <next>-1</next></_>
    <_>
      <!-- stage 2 -->
      <trees>
        <_>
          <!-- tree 0 -->
          <_>
            <!-- root node -->
            <feature>
              <rects>
                <_>
                  9 11 5 4 -1.</_>
                <_>
                  9 12 5 2 2.</_></rects>
              <tilted>0</tilted></feature>
            <threshold>-1.2093080440536141e-003</threshold>
            <left_node>1</left_node>
            <right_val>-0.4331881105899811</right_val></_>
          <_>
            <!-- node 1 -->
            <feature>
              <rects>
                <_>
                  9 14 3 4 -1.</_>
                <_>
                  9 16 3 2 2.</_></rects>
              <tilted>0</tilted></feature>
            <threshold>1.8050159560516477e-003</threshold>
            <left_val>0.7383738160133362</left_val>
            <right_val>-0.6780561804771423</right_val></_></_>
        <_>
          <!-- tree 1 -->
          <_>
            <!-- root node -->
            <feature>
              <rects>
                <_>
                  0 2 8 7 -1.</_>
                <_>
                  4 2 4 7 2.</_></rects>
              <tilted>0</tilted></feature>
            <threshold>-0.0398552492260933</threshold>
            <left_val>0.6896981000900269</left_val>
            <right_node>1</right_node></_>
          <_>
            <!-- node 1 -->
            <feature>
              <rects>
                <_>
                  2 10 2 16 -1.</_>
                <_>
                  2 10 1 8 2.</_>
                <_>
                  3 18 1 8 2.</_></rects>
              <tilted>0</tilted></feature>
            <threshold>6.8345312029123306e-003</threshold>
            <left_val>-0.5510650873184204</left_val>
            <right_val>0.8091229796409607</right_val></_></_>
        <_>
          <!-- tree 2 -->
          <_>
            <!-- root node -->
            <feature>
              <rects>
                <_>
                  7 16 4 3 -1.</_>
                <_>
                  9 16 2 3 2.</_></rects>
              <tilted>0</tilted></feature>
            <threshold>-1.7682450124993920e-003</threshold>
            <left_val>-0.7807688117027283</left_val>
            <right_node>1</right_node></_>
          <_>
            <!-- node 1 -->
            <feature>
              <rects>
                <_>
                  5 16 6 9 -1.</_>
                <_>
                  8 16 3 9 2.</_></rects>
              <tilted>0</tilted></feature>
            <threshold>0.0185980293899775</threshold>
            <left_val>0.5023921132087708</left_val>
            <right_val>-0.7211065292358398</right_val></_></_>
        <_>
          <!-- tree 3 -->
          <_>
            <!-- root node -->
            <feature>
              <rects>
                <_>
                  7 9 3 6 -1.</_>
                <_>
                  7 11 3 2 3.</_></rects>
              <tilted>0</tilted></feature>
            <threshold>-1.9108729902654886e-003</threshold>
            <left_node>1</left_node>
            <right_val>-0.4705060124397278</right_val></_>
          <_>
            <!-- node 1 -->
            <feature>
              <rects>
                <_>
                  6 15 6 14 -1.</_>
                <_>
                  6 22 6 7 2.</_></rects>
              <tilted>0</tilted></feature>
            <threshold>0.0288747400045395</threshold>
            <left_val>0.6717876195907593</left_val>
            <right_val>-0.8777663111686707</right_val></_></_>
        <_>
          <!-- tree 4 -->
          <_>
            <!-- root node -->
            <feature>
              <rects>
                <_>
                  9 2 3 6 -1.</_>
                <_>
                  10 2 1 6 3.</_></rects>
              <tilted>0</tilted></feature>
            <threshold>-5.7065859436988831e-003</threshold>
            <left_val>0.7445722818374634</left_val>
            <right_node>1</right_node></_>
          <_>
            <!-- node 1 -->
            <feature>
              <rects>
                <_>
                  10 5 4 1 -1.</_>
                <_>
                  11 5 2 1 2.</_></rects>
              <tilted>0</tilted></feature>
            <threshold>-1.0044140508398414e-003</threshold>
            <left_val>0.7378497123718262</left_val>
            <right_val>-0.5552396774291992</right_val></_></_>
        <_>
          <!-- tree 5 -->
          <_>
            <!-- root node -->
            <feature>
              <rects>
                <_>
                  9 28 1 2 -1.</_>
                <_>
                  9 29 1 1 2.</_></rects>
              <tilted>0</tilted></feature>
            <threshold>-1.5208909644570667e-005</threshold>
            <left_node>1</left_node>
            <right_val>-0.5854989886283875</right_val></_>
          <_>
            <!-- node 1 -->
            <feature>
              <rects>
                <_>
                  9 17 2 6 -1.</_>
                <_>
                  9 20 2 3 2.</_></rects>
              <tilted>0</tilted></feature>
            <threshold>-4.6963879140093923e-004</threshold>
            <left_val>-0.4409408867359161</left_val>
            <right_val>0.6618887782096863</right_val></_></_>
        <_>
          <!-- tree 6 -->
          <_>
            <!-- root node -->
            <feature>
              <rects>
                <_>
                  0 12 2 8 -1.</_>
                <_>
                  0 12 1 4 2.</_>
                <_>
                  1 16 1 4 2.</_></rects>
              <tilted>0</tilted></feature>
            <threshold>3.2695569097995758e-003</threshold>
            <left_node>1</left_node>
            <right_val>0.7465494275093079</right_val></_>
          <_>
            <!-- node 1 -->
            <feature>
              <rects>
                <_>
                  4 7 3 3 -1.</_>
                <_>
                  5 7 1 3 3.</_></rects>
              <tilted>0</tilted></feature>
            <threshold>2.1289940923452377e-003</threshold>
            <left_val>-0.5169246792793274</left_val>
            <right_val>0.5618063211441040</right_val></_></_></trees>
      <stage_threshold>-1.5312989950180054</stage_threshold>
      <parent>1</parent>
      <next>-1</next></_>
    <_>
      <!-- stage 3 -->
      <trees>
        <_>
          <!-- tree 0 -->
          <_>
            <!-- root node -->
            <feature>
              <rects>
                <_>
                  10 11 4 4 -1.</_>
                <_>
                  10 12 4 2 2.</_></rects>
              <tilted>0</tilted></feature>
            <threshold>-2.1460909920278937e-004</threshold>
            <left_node>1</left_node>
            <right_val>-0.5201253890991211</right_val></_>
          <_>
            <!-- node 1 -->
            <feature>
              <rects>
                <_>
                  8 17 4 8 -1.</_>
                <_>
                  8 19 4 4 2.</_></rects>
              <tilted>0</tilted></feature>
            <threshold>-4.1979118250310421e-003</threshold>
            <left_val>-0.8786305785179138</left_val>
            <right_val>0.5749161243438721</right_val></_></_>
        <_>
          <!-- tree 1 -->
          <_>
            <!-- root node -->
            <feature>
              <rects>
                <_>
                  0 12 2 8 -1.</_>
                <_>
                  1 12 1 8 2.</_></rects>
              <tilted>0</tilted></feature>
            <threshold>-5.7393661700189114e-003</threshold>
            <left_val>0.7369105815887451</left_val>
            <right_node>1</right_node></_>
          <_>
            <!-- node 1 -->
            <feature>
              <rects>
                <_>
                  7 8 3 4 -1.</_>
                <_>
                  8 8 1 4 3.</_></rects>
              <tilted>0</tilted></feature>
            <threshold>2.3312419652938843e-003</threshold>
            <left_val>-0.5490717291831970</left_val>
            <right_val>0.5524417161941528</right_val></_></_>
        <_>
          <!-- tree 2 -->
          <_>
            <!-- root node -->
            <feature>
              <rects>
                <_>
                  12 25 1 2 -1.</_>
                <_>
                  12 26 1 1 2.</_></rects>
              <tilted>0</tilted></feature>
            <threshold>6.0511159972520545e-005</threshold>
            <left_node>1</left_node>
            <right_val>-0.7717024087905884</right_val></_>
          <_>
            <!-- node 1 -->
            <feature>
              <rects>
                <_>
                  6 25 7 3 -1.</_>
                <_>
                  6 26 7 1 3.</_></rects>
              <tilted>0</tilted></feature>
            <threshold>-8.8572438107803464e-004</threshold>
            <left_val>-0.5989816188812256</left_val>
            <right_val>0.5382357835769653</right_val></_></_>
        <_>
          <!-- tree 3 -->
          <_>
            <!-- root node -->
            <feature>
              <rects>
                <_>
                  5 6 3 2 -1.</_>
                <_>
                  6 6 1 2 3.</_></rects>
              <tilted>0</tilted></feature>
            <threshold>1.7924009589478374e-003</threshold>
            <left_node>1</left_node>
            <right_val>0.7428755760192871</right_val></_>
          <_>
            <!-- node 1 -->
            <feature>
              <rects>
                <_>
                  5 0 3 7 -1.</_>
                <_>
                  6 0 1 7 3.</_></rects>
              <tilted>0</tilted></feature>
            <threshold>-7.0131202228367329e-003</threshold>
            <left_val>0.6708111166954041</left_val>
            <right_val>-0.5492346286773682</right_val></_></_>
        <_>
          <!-- tree 4 -->
          <_>
            <!-- root node -->
            <feature>
              <rects>
                <_>
                  16 11 2 17 -1.</_>
                <_>
                  17 11 1 17 2.</_></rects>
              <tilted>0</tilted></feature>
            <threshold>0.0112994397059083</threshold>
            <left_node>1</left_node>
            <right_val>0.7992541193962097</right_val></_>
          <_>
            <!-- node 1 -->
            <feature>
              <rects>
                <_>
                  16 4 2 22 -1.</_>
                <_>
                  17 4 1 22 2.</_></rects>
              <tilted>0</tilted></feature>
            <threshold>-0.0200376100838184</threshold>
            <left_val>0.8168113231658936</left_val>
            <right_val>-0.5028390288352966</right_val></_></_>
        <_>
          <!-- tree 5 -->
          <_>
            <!-- root node -->
            <feature>
              <rects>
                <_>
                  9 27 1 2 -1.</_>
                <_>
                  9 28 1 1 2.</_></rects>
              <tilted>0</tilted></feature>
            <threshold>5.4981999710435048e-005</threshold>
            <left_node>1</left_node>
            <right_val>-0.7650352120399475</right_val></_>
          <_>
            <!-- node 1 -->
            <feature>
              <rects>
                <_>
                  7 6 6 18 -1.</_>
                <_>
                  9 12 2 6 9.</_></rects>
              <tilted>0</tilted></feature>
            <threshold>-0.0742989927530289</threshold>
            <left_val>-0.8716195225715637</left_val>
            <right_val>0.4686313867568970</right_val></_></_>
        <_>
          <!-- tree 6 -->
          <_>
            <!-- root node -->
            <feature>
              <rects>
                <_>
                  6 6 3 5 -1.</_>
                <_>
                  7 6 1 5 3.</_></rects>
              <tilted>0</tilted></feature>
            <threshold>2.7121100574731827e-003</threshold>
            <left_node>1</left_node>
            <right_val>0.6219248771667481</right_val></_>
          <_>
            <!-- node 1 -->
            <feature>
              <rects>
                <_>
                  6 5 3 5 -1.</_>
                <_>
                  7 5 1 5 3.</_></rects>
              <tilted>0</tilted></feature>
            <threshold>-4.1039059869945049e-003</threshold>
            <left_val>0.5685992836952210</left_val>
            <right_val>-0.6395236253738403</right_val></_></_>
        <_>
          <!-- tree 7 -->
          <_>
            <!-- root node -->
            <feature>
              <rects>
                <_>
                  5 19 4 8 -1.</_>
                <_>
                  5 21 4 4 2.</_></rects>
              <tilted>0</tilted></feature>
            <threshold>-1.0173759656026959e-003</threshold>
            <left_val>-0.7213364243507385</left_val>
            <right_node>1</right_node></_>
          <_>
            <!-- node 1 -->
            <feature>
              <rects>
                <_>
                  6 3 3 15 -1.</_>
                <_>
                  6 8 3 5 3.</_></rects>
              <tilted>0</tilted></feature>
            <threshold>-1.3614339986816049e-003</threshold>
            <left_val>0.5583984255790710</left_val>
            <right_val>-0.4440881907939911</right_val></_></_>
        <_>
          <!-- tree 8 -->
          <_>
            <!-- root node -->
            <feature>
              <rects>
                <_>
                  8 16 3 6 -1.</_>
                <_>
                  9 18 1 2 9.</_></rects>
              <tilted>0</tilted></feature>
            <threshold>-7.9948157072067261e-003</threshold>
            <left_val>-0.8381114006042481</left_val>
            <right_node>1</right_node></_>
          <_>
            <!-- node 1 -->
            <feature>
              <rects>
                <_>
                  0 16 16 6 -1.</_>
                <_>
                  0 18 16 2 3.</_></rects>
              <tilted>0</tilted></feature>
            <threshold>0.0146289002150297</threshold>
            <left_val>0.4226880967617035</left_val>
            <right_val>-0.5550683140754700</right_val></_></_>
        <_>
          <!-- tree 9 -->
          <_>
            <!-- root node -->
            <feature>
              <rects>
                <_>
                  13 23 3 2 -1.</_>
                <_>
                  13 24 3 1 2.</_></rects>
              <tilted>0</tilted></feature>
            <threshold>-9.5036783022806048e-005</threshold>
            <left_val>0.3793439865112305</left_val>
            <right_node>1</right_node></_>
          <_>
            <!-- node 1 -->
            <feature>
              <rects>
                <_>
                  10 22 8 6 -1.</_>
                <_>
                  14 22 4 6 2.</_></rects>
              <tilted>0</tilted></feature>
            <threshold>0.0557039789855480</threshold>
            <left_val>-0.7130268812179565</left_val>
            <right_val>0.8720893263816834</right_val></_></_></trees>
      <stage_threshold>-1.9990140199661255</stage_threshold>
      <parent>2</parent>
      <next>-1</next></_>
    <_>
      <!-- stage 4 -->
      <trees>
        <_>
          <!-- tree 0 -->
          <_>
            <!-- root node -->
            <feature>
              <rects>
                <_>
                  12 6 3 8 -1.</_>
                <_>
                  13 6 1 8 3.</_></rects>
              <tilted>0</tilted></feature>
            <threshold>-9.8213702440261841e-003</threshold>
            <left_val>0.8491042852401733</left_val>
            <right_node>1</right_node></_>
          <_>
            <!-- node 1 -->
            <feature>
              <rects>
                <_>
                  12 4 3 9 -1.</_>
                <_>
                  13 4 1 9 3.</_></rects>
              <tilted>0</tilted></feature>
            <threshold>7.6811960898339748e-003</threshold>
            <left_val>-0.4603098928928375</left_val>
            <right_val>0.6756324768066406</right_val></_></_>
        <_>
          <!-- tree 1 -->
          <_>
            <!-- root node -->
            <feature>
              <rects>
                <_>
                  1 6 16 7 -1.</_>
                <_>
                  5 6 8 7 2.</_></rects>
              <tilted>0</tilted></feature>
            <threshold>-0.0900693163275719</threshold>
            <left_val>0.7538335919380188</left_val>
            <right_node>1</right_node></_>
          <_>
            <!-- node 1 -->
            <feature>
              <rects>
                <_>
                  0 9 2 13 -1.</_>
                <_>
                  1 9 1 13 2.</_></rects>
              <tilted>0</tilted></feature>
            <threshold>8.8516809046268463e-003</threshold>
            <left_val>-0.5364142060279846</left_val>
            <right_val>0.6866000890731812</right_val></_></_>
        <_>
          <!-- tree 2 -->
          <_>
            <!-- root node -->
            <feature>
              <rects>
                <_>
                  13 10 3 3 -1.</_>
                <_>
                  14 10 1 3 3.</_></rects>
              <tilted>0</tilted></feature>
            <threshold>-3.0104829929769039e-003</threshold>
            <left_val>0.7101585865020752</left_val>
            <right_node>1</right_node></_>
          <_>
            <!-- node 1 -->
            <feature>
              <rects>
                <_>
                  0 12 2 17 -1.</_>
                <_>
                  1 12 1 17 2.</_></rects>
              <tilted>0</tilted></feature>
            <threshold>-0.0120314303785563</threshold>
            <left_val>0.5878502130508423</left_val>
            <right_val>-0.5245686173439026</right_val></_></_>
        <_>
          <!-- tree 3 -->
          <_>
            <!-- root node -->
            <feature>
              <rects>
                <_>
                  10 28 4 2 -1.</_>
                <_>
                  10 29 4 1 2.</_></rects>
              <tilted>0</tilted></feature>
            <threshold>-8.4777647862210870e-004</threshold>
            <left_node>1</left_node>
            <right_val>-0.4406965076923370</right_val></_>
          <_>
            <!-- node 1 -->
            <feature>
              <rects>
                <_>
                  12 15 3 10 -1.</_>
                <_>
                  12 20 3 5 2.</_></rects>
              <tilted>0</tilted></feature>
            <threshold>-0.0117811104282737</threshold>
            <left_val>-0.7213240265846252</left_val>
            <right_val>0.6851292848587036</right_val></_></_>
        <_>
          <!-- tree 4 -->
          <_>
            <!-- root node -->
            <feature>
              <rects>
                <_>
                  7 8 4 4 -1.</_>
                <_>
                  7 9 4 2 2.</_></rects>
              <tilted>0</tilted></feature>
            <threshold>3.9843431295594200e-005</threshold>
            <left_val>-0.5030239820480347</left_val>
            <right_node>1</right_node></_>
          <_>
            <!-- node 1 -->
            <feature>
              <rects>
                <_>
                  5 8 8 8 -1.</_>
                <_>
                  5 10 8 4 2.</_></rects>
              <tilted>0</tilted></feature>
            <threshold>8.0944262444972992e-003</threshold>
            <left_val>0.5075812935829163</left_val>
            <right_val>-0.8230565190315247</right_val></_></_>
        <_>
          <!-- tree 5 -->
          <_>
            <!-- root node -->
            <feature>
              <rects>
                <_>
                  14 14 4 5 -1.</_>
                <_>
                  15 14 2 5 2.</_></rects>
              <tilted>0</tilted></feature>
            <threshold>-6.7069968208670616e-003</threshold>
            <left_val>0.7906771898269653</left_val>
            <right_node>1</right_node></_>
          <_>
            <!-- node 1 -->
            <feature>
              <rects>
                <_>
                  11 6 3 7 -1.</_>
                <_>
                  12 6 1 7 3.</_></rects>
              <tilted>0</tilted></feature>
            <threshold>-6.7181438207626343e-003</threshold>
            <left_val>0.7657588124275208</left_val>
            <right_val>-0.4082917869091034</right_val></_></_>
        <_>
          <!-- tree 6 -->
          <_>
            <!-- root node -->
            <feature>
              <rects>
                <_>
                  11 8 3 7 -1.</_>
                <_>
                  12 8 1 7 3.</_></rects>
              <tilted>0</tilted></feature>
            <threshold>2.8422831092029810e-003</threshold>
            <left_node>1</left_node>
            <right_val>0.6787983179092407</right_val></_>
          <_>
            <!-- node 1 -->
            <feature>
              <rects>
                <_>
                  3 7 3 10 -1.</_>
                <_>
                  4 7 1 10 3.</_></rects>
              <tilted>0</tilted></feature>
            <threshold>-8.7358746677637100e-003</threshold>
            <left_val>0.7187883257865906</left_val>
            <right_val>-0.4181211888790131</right_val></_></_>
        <_>
          <!-- tree 7 -->
          <_>
            <!-- root node -->
            <feature>
              <rects>
                <_>
                  3 5 3 9 -1.</_>
                <_>
                  4 5 1 9 3.</_></rects>
              <tilted>0</tilted></feature>
            <threshold>5.9270500205457211e-003</threshold>
            <left_node>1</left_node>
            <right_val>0.7536451816558838</right_val></_>
          <_>
            <!-- node 1 -->
            <feature>
              <rects>
                <_>
                  6 23 4 4 -1.</_>
                <_>
                  6 24 4 2 2.</_></rects>
              <tilted>0</tilted></feature>
            <threshold>-3.5946781281381845e-004</threshold>
            <left_val>-0.8000596165657044</left_val>
            <right_val>0.0898322090506554</right_val></_></_></trees>
      <stage_threshold>-1.9668669700622559</stage_threshold>
      <parent>3</parent>
      <next>-1</next></_>
    <_>
      <!-- stage 5 -->
      <trees>
        <_>
          <!-- tree 0 -->
          <_>
            <!-- root node -->
            <feature>
              <rects>
                <_>
                  6 27 1 2 -1.</_>
                <_>
                  6 28 1 1 2.</_></rects>
              <tilted>0</tilted></feature>
            <threshold>-1.0038659820565954e-004</threshold>
            <left_node>1</left_node>
            <right_val>-0.6357818841934204</right_val></_>
          <_>
            <!-- node 1 -->
            <feature>
              <rects>
                <_>
                  6 12 6 6 -1.</_>
                <_>
                  6 14 6 2 3.</_></rects>
              <tilted>0</tilted></feature>
            <threshold>9.2944287462159991e-004</threshold>
            <left_val>-0.3568449914455414</left_val>
            <right_val>0.7099741101264954</right_val></_></_>
        <_>
          <!-- tree 1 -->
          <_>
            <!-- root node -->
            <feature>
              <rects>
                <_>
                  2 0 13 6 -1.</_>
                <_>
                  2 3 13 3 2.</_></rects>
              <tilted>0</tilted></feature>
            <threshold>-0.0423633195459843</threshold>
            <left_val>0.6908233761787415</left_val>
            <right_node>1</right_node></_>
          <_>
            <!-- node 1 -->
            <feature>
              <rects>
                <_>
                  0 19 4 5 -1.</_>
                <_>
                  2 19 2 5 2.</_></rects>
              <tilted>0</tilted></feature>
            <threshold>0.0141160897910595</threshold>
            <left_val>-0.5544124841690064</left_val>
            <right_val>0.5975962281227112</right_val></_></_>
        <_>
          <!-- tree 2 -->
          <_>
            <!-- root node -->
            <feature>
              <rects>
                <_>
                  6 15 2 2 -1.</_>
                <_>
                  6 16 2 1 2.</_></rects>
              <tilted>0</tilted></feature>
            <threshold>-3.6666369851445779e-005</threshold>
            <left_node>1</left_node>
            <right_val>-0.4924683868885040</right_val></_>
          <_>
            <!-- node 1 -->
            <feature>
              <rects>
                <_>
                  6 6 3 12 -1.</_>
                <_>
                  6 10 3 4 3.</_></rects>
              <tilted>0</tilted></feature>
            <threshold>9.3902666121721268e-003</threshold>
            <left_val>0.5892531871795654</left_val>
            <right_val>-0.6984586119651794</right_val></_></_>
        <_>
          <!-- tree 3 -->
          <_>
            <!-- root node -->
            <feature>
              <rects>
                <_>
                  13 26 1 2 -1.</_>
                <_>
                  13 27 1 1 2.</_></rects>
              <tilted>0</tilted></feature>
            <threshold>-9.8174219601787627e-005</threshold>
            <left_node>1</left_node>
            <right_val>-0.4776892066001892</right_val></_>
          <_>
            <!-- node 1 -->
            <feature>
              <rects>
                <_>
                  5 24 3 1 -1.</_>
                <_>
                  6 24 1 1 3.</_></rects>
              <tilted>0</tilted></feature>
            <threshold>-7.0447369944304228e-004</threshold>
            <left_val>-0.8725668787956238</left_val>
            <right_val>0.5089238286018372</right_val></_></_>
        <_>
          <!-- tree 4 -->
          <_>
            <!-- root node -->
            <feature>
              <rects>
                <_>
                  12 12 4 2 -1.</_>
                <_>
                  13 12 2 2 2.</_></rects>
              <tilted>0</tilted></feature>
            <threshold>-1.2671969598159194e-003</threshold>
            <left_val>0.5144653916358948</left_val>
            <right_node>1</right_node></_>
          <_>
            <!-- node 1 -->
            <feature>
              <rects>
                <_>
                  12 6 6 9 -1.</_>
                <_>
                  14 9 2 3 9.</_></rects>
              <tilted>0</tilted></feature>
            <threshold>0.0354821607470512</threshold>
            <left_val>-0.6507800221443176</left_val>
            <right_val>0.5471242070198059</right_val></_></_>
        <_>
          <!-- tree 5 -->
          <_>
            <!-- root node -->
            <feature>
              <rects>
                <_>
                  10 8 1 3 -1.</_>
                <_>
                  10 9 1 1 3.</_></rects>
              <tilted>0</tilted></feature>
            <threshold>3.6443369026528671e-005</threshold>
            <left_node>1</left_node>
            <right_val>0.3887900114059448</right_val></_>
          <_>
            <!-- node 1 -->
            <feature>
              <rects>
                <_>
                  2 9 2 8 -1.</_>
                <_>
                  2 9 1 4 2.</_>
                <_>
                  3 13 1 4 2.</_></rects>
              <tilted>0</tilted></feature>
            <threshold>-5.7007549330592155e-003</threshold>
            <left_val>0.8381795287132263</left_val>
            <right_val>-0.4810219109058380</right_val></_></_>
        <_>
          <!-- tree 6 -->
          <_>
            <!-- root node -->
            <feature>
              <rects>
                <_>
                  9 27 1 2 -1.</_>
                <_>
                  9 28 1 1 2.</_></rects>
              <tilted>0</tilted></feature>
            <threshold>-2.7221409254707396e-005</threshold>
            <left_node>1</left_node>
            <right_val>-0.6841197013854981</right_val></_>
          <_>
            <!-- node 1 -->
            <feature>
              <rects>
                <_>
                  5 21 3 4 -1.</_>
                <_>
                  5 22 3 2 2.</_></rects>
              <tilted>0</tilted></feature>
            <threshold>-8.0068391980603337e-004</threshold>
            <left_val>-0.7375146746635437</left_val>
            <right_val>0.3830048143863678</right_val></_></_>
        <_>
          <!-- tree 7 -->
          <_>
            <!-- root node -->
            <feature>
              <rects>
                <_>
                  0 16 4 2 -1.</_>
                <_>
                  2 16 2 2 2.</_></rects>
              <tilted>0</tilted></feature>
            <threshold>-2.7703980449587107e-003</threshold>
            <left_val>0.5547065734863281</left_val>
            <right_node>1</right_node></_>
          <_>
            <!-- node 1 -->
            <feature>
              <rects>
                <_>
                  2 4 4 14 -1.</_>
                <_>
                  2 4 2 7 2.</_>
                <_>
                  4 11 2 7 2.</_></rects>
              <tilted>0</tilted></feature>
            <threshold>-0.0152956796810031</threshold>
            <left_val>0.5725160837173462</left_val>
            <right_val>-0.6314622163772583</right_val></_></_>
        <_>
          <!-- tree 8 -->
          <_>
            <!-- root node -->
            <feature>
              <rects>
                <_>
                  7 5 3 8 -1.</_>
                <_>
                  8 5 1 8 3.</_></rects>
              <tilted>0</tilted></feature>
            <threshold>8.9025832712650299e-003</threshold>
            <left_node>1</left_node>
            <right_val>0.8177909851074219</right_val></_>
          <_>
            <!-- node 1 -->
            <feature>
              <rects>
                <_>
                  5 3 4 4 -1.</_>
                <_>
                  6 3 2 4 2.</_></rects>
              <tilted>0</tilted></feature>
            <threshold>0.0101306904107332</threshold>
            <left_val>-0.3655206859111786</left_val>
            <right_val>0.9384660720825195</right_val></_></_>
        <_>
          <!-- tree 9 -->
          <_>
            <!-- root node -->
            <feature>
              <rects>
                <_>
                  8 11 4 18 -1.</_>
                <_>
                  8 17 4 6 3.</_></rects>
              <tilted>0</tilted></feature>
            <threshold>5.0233060028403997e-004</threshold>
            <left_node>1</left_node>
            <right_val>0.2998316884040833</right_val></_>
          <_>
            <!-- node 1 -->
            <feature>
              <rects>
                <_>
                  15 7 3 15 -1.</_>
                <_>
                  16 12 1 5 9.</_></rects>
              <tilted>0</tilted></feature>
            <threshold>-0.0352867804467678</threshold>
            <left_val>0.6055952906608582</left_val>
            <right_val>-0.7504001259803772</right_val></_></_>
        <_>
          <!-- tree 10 -->
          <_>
            <!-- root node -->
            <feature>
              <rects>
                <_>
                  3 6 2 12 -1.</_>
                <_>
                  3 6 1 6 2.</_>
                <_>
                  4 12 1 6 2.</_></rects>
              <tilted>0</tilted></feature>
            <threshold>2.4196500889956951e-003</threshold>
            <left_node>1</left_node>
            <right_val>0.5649641156196594</right_val></_>
          <_>
            <!-- node 1 -->
            <feature>
              <rects>
                <_>
                  9 1 3 2 -1.</_>
                <_>
                  10 1 1 2 3.</_></rects>
              <tilted>0</tilted></feature>
            <threshold>-1.7967480234801769e-003</threshold>
            <left_val>0.4435547888278961</left_val>
            <right_val>-0.5295737981796265</right_val></_></_>
        <_>
          <!-- tree 11 -->
          <_>
            <!-- root node -->
            <feature>
              <rects>
                <_>
                  6 20 3 8 -1.</_>
                <_>
                  6 22 3 4 2.</_></rects>
              <tilted>0</tilted></feature>
            <threshold>1.7235059203812853e-005</threshold>
            <left_node>1</left_node>
            <right_val>0.1751732975244522</right_val></_>
          <_>
            <!-- node 1 -->
            <feature>
              <rects>
                <_>
                  14 6 4 14 -1.</_>
                <_>
                  14 6 2 7 2.</_>
                <_>
                  16 13 2 7 2.</_></rects>
              <tilted>0</tilted></feature>
            <threshold>-0.0290133301168680</threshold>
            <left_val>0.7508314251899719</left_val>
            <right_val>-0.7178962826728821</right_val></_></_></trees>
      <stage_threshold>-1.8623269796371460</stage_threshold>
      <parent>4</parent>
      <next>-1</next></_>
    <_>
      <!-- stage 6 -->
      <trees>
        <_>
          <!-- tree 0 -->
          <_>
            <!-- root node -->
            <feature>
              <rects>
                <_>
                  11 27 1 2 -1.</_>
                <_>
                  11 28 1 1 2.</_></rects>
              <tilted>0</tilted></feature>
            <threshold>-1.4688899682369083e-005</threshold>
            <left_node>1</left_node>
            <right_val>-0.6811677217483521</right_val></_>
          <_>
            <!-- node 1 -->
            <feature>
              <rects>
                <_>
                  10 10 3 6 -1.</_>
                <_>
                  10 12 3 2 3.</_></rects>
              <tilted>0</tilted></feature>
            <threshold>-1.8557120711193420e-005</threshold>
            <left_val>0.5569137930870056</left_val>
            <right_val>-0.3928368091583252</right_val></_></_>
        <_>
          <!-- tree 1 -->
          <_>
            <!-- root node -->
            <feature>
              <rects>
                <_>
                  1 1 16 10 -1.</_>
                <_>
                  5 1 8 10 2.</_></rects>
              <tilted>0</tilted></feature>
            <threshold>-0.1395367980003357</threshold>
            <left_val>0.7670711278915405</left_val>
            <right_node>1</right_node></_>
          <_>
            <!-- node 1 -->
            <feature>
              <rects>
                <_>
                  2 24 16 6 -1.</_>
                <_>
                  6 24 8 6 2.</_></rects>
              <tilted>0</tilted></feature>
            <threshold>0.0575480684638023</threshold>
            <left_val>-0.4985337853431702</left_val>
            <right_val>0.6653742194175720</right_val></_></_>
        <_>
          <!-- tree 2 -->
          <_>
            <!-- root node -->
            <feature>
              <rects>
                <_>
                  6 23 3 3 -1.</_>
                <_>
                  7 24 1 1 9.</_></rects>
              <tilted>0</tilted></feature>
            <threshold>-1.8310219747945666e-003</threshold>
            <left_val>-0.8252679705619812</left_val>
            <right_node>1</right_node></_>
          <_>
            <!-- node 1 -->
            <feature>
              <rects>
                <_>
                  6 15 3 12 -1.</_>
                <_>
                  7 15 1 12 3.</_></rects>
              <tilted>0</tilted></feature>
            <threshold>3.4369509667158127e-003</threshold>
            <left_val>0.4241277873516083</left_val>
            <right_val>-0.5601133108139038</right_val></_></_>
        <_>
          <!-- tree 3 -->
          <_>
            <!-- root node -->
            <feature>
              <rects>
                <_>
                  0 1 1 4 -1.</_>
                <_>
                  0 2 1 2 2.</_></rects>
              <tilted>0</tilted></feature>
            <threshold>-3.5397699684835970e-004</threshold>
            <left_val>-0.7113872170448303</left_val>
            <right_node>1</right_node></_>
          <_>
            <!-- node 1 -->
            <feature>
              <rects>
                <_>
                  0 1 1 4 -1.</_>
                <_>
                  0 2 1 2 2.</_></rects>
              <tilted>0</tilted></feature>
            <threshold>1.8857940449379385e-004</threshold>
            <left_val>0.4500840008258820</left_val>
            <right_val>-0.4022961854934692</right_val></_></_>
        <_>
          <!-- tree 4 -->
          <_>
            <!-- root node -->
            <feature>
              <rects>
                <_>
                  6 13 3 3 -1.</_>
                <_>
                  6 14 3 1 3.</_></rects>
              <tilted>0</tilted></feature>
            <threshold>1.6817590221762657e-005</threshold>
            <left_val>-0.4860559999942780</left_val>
            <right_node>1</right_node></_>
          <_>
            <!-- node 1 -->
            <feature>
              <rects>
                <_>
                  7 11 6 4 -1.</_>
                <_>
                  10 11 3 4 2.</_></rects>
              <tilted>0</tilted></feature>
            <threshold>-0.0111392196267843</threshold>
            <left_val>-0.8422247171401978</left_val>
            <right_val>0.4576892852783203</right_val></_></_>
        <_>
          <!-- tree 5 -->
          <_>
            <!-- root node -->
            <feature>
              <rects>
                <_>
                  10 24 3 3 -1.</_>
                <_>
                  10 25 3 1 3.</_></rects>
              <tilted>0</tilted></feature>
            <threshold>1.6346289776265621e-003</threshold>
            <left_node>1</left_node>
            <right_val>-0.7969077825546265</right_val></_>
          <_>
            <!-- node 1 -->
            <feature>
              <rects>
                <_>
                  8 14 3 6 -1.</_>
                <_>
                  9 16 1 2 9.</_></rects>
              <tilted>0</tilted></feature>
            <threshold>2.3299960885196924e-003</threshold>
            <left_val>0.3587008118629456</left_val>
            <right_val>-0.5854939222335815</right_val></_></_>
        <_>
          <!-- tree 6 -->
          <_>
            <!-- root node -->
            <feature>
              <rects>
                <_>
                  10 2 3 7 -1.</_>
                <_>
                  11 2 1 7 3.</_></rects>
              <tilted>0</tilted></feature>
            <threshold>-8.1787705421447754e-003</threshold>
            <left_val>0.7387740015983582</left_val>
            <right_node>1</right_node></_>
          <_>
            <!-- node 1 -->
            <feature>
              <rects>
                <_>
                  10 4 3 3 -1.</_>
                <_>
                  11 4 1 3 3.</_></rects>
              <tilted>0</tilted></feature>
            <threshold>4.0297009982168674e-003</threshold>
            <left_val>-0.5089361071586609</left_val>
            <right_val>0.5355908274650574</right_val></_></_>
        <_>
          <!-- tree 7 -->
          <_>
            <!-- root node -->
            <feature>
              <rects>
                <_>
                  3 0 13 8 -1.</_>
                <_>
                  3 4 13 4 2.</_></rects>
              <tilted>0</tilted></feature>
            <threshold>-0.0436485782265663</threshold>
            <left_val>0.5086665749549866</left_val>
            <right_node>1</right_node></_>
          <_>
            <!-- node 1 -->
            <feature>
              <rects>
                <_>
                  0 9 3 18 -1.</_>
                <_>
                  1 15 1 6 9.</_></rects>
              <tilted>0</tilted></feature>
            <threshold>0.0583389587700367</threshold>
            <left_val>-0.6025652289390564</left_val>
            <right_val>0.6503977179527283</right_val></_></_>
        <_>
          <!-- tree 8 -->
          <_>
            <!-- root node -->
            <feature>
              <rects>
                <_>
                  7 27 1 2 -1.</_>
                <_>
                  7 28 1 1 2.</_></rects>
              <tilted>0</tilted></feature>
            <threshold>-3.6967998312320560e-005</threshold>
            <left_node>1</left_node>
            <right_val>-0.5923662781715393</right_val></_>
          <_>
            <!-- node 1 -->
            <feature>
              <rects>
                <_>
                  10 6 4 9 -1.</_>
                <_>
                  10 9 4 3 3.</_></rects>
              <tilted>0</tilted></feature>
            <threshold>-0.0199363902211189</threshold>
            <left_val>-0.8412305712699890</left_val>
            <right_val>0.4058279991149902</right_val></_></_>
        <_>
          <!-- tree 9 -->
          <_>
            <!-- root node -->
            <feature>
              <rects>
                <_>
                  10 12 4 10 -1.</_>
                <_>
                  10 17 4 5 2.</_></rects>
              <tilted>0</tilted></feature>
            <threshold>7.1389396907761693e-005</threshold>
            <left_val>-0.5057078003883362</left_val>
            <right_node>1</right_node></_>
          <_>
            <!-- node 1 -->
            <feature>
              <rects>
                <_>
                  4 13 8 7 -1.</_>
                <_>
                  8 13 4 7 2.</_></rects>
              <tilted>0</tilted></feature>
            <threshold>3.0831761250738055e-005</threshold>
            <left_val>-0.3768149018287659</left_val>
            <right_val>0.6531801819801331</right_val></_></_></trees>
      <stage_threshold>-1.6442259550094604</stage_threshold>
      <parent>5</parent>
      <next>-1</next></_>
    <_>
      <!-- stage 7 -->
      <trees>
        <_>
          <!-- tree 0 -->
          <_>
            <!-- root node -->
            <feature>
              <rects>
                <_>
                  7 5 3 6 -1.</_>
                <_>
                  7 7 3 2 3.</_></rects>
              <tilted>0</tilted></feature>
            <threshold>-4.1990578756667674e-004</threshold>
            <left_node>1</left_node>
            <right_val>-0.4788565039634705</right_val></_>
          <_>
            <!-- node 1 -->
            <feature>
              <rects>
                <_>
                  7 8 3 8 -1.</_>
                <_>
                  7 10 3 4 2.</_></rects>
              <tilted>0</tilted></feature>
            <threshold>-2.0167430193396285e-005</threshold>
            <left_val>0.5775780081748962</left_val>
            <right_val>-0.4155735969543457</right_val></_></_>
        <_>
          <!-- tree 1 -->
          <_>
            <!-- root node -->
            <feature>
              <rects>
                <_>
                  7 4 4 16 -1.</_>
                <_>
                  7 8 4 8 2.</_></rects>
              <tilted>0</tilted></feature>
            <threshold>-0.0207063406705856</threshold>
            <left_val>-0.7282165288925171</left_val>
            <right_node>1</right_node></_>
          <_>
            <!-- node 1 -->
            <feature>
              <rects>
                <_>
                  8 26 3 3 -1.</_>
                <_>
                  9 27 1 1 9.</_></rects>
              <tilted>0</tilted></feature>
            <threshold>2.9723290354013443e-003</threshold>
            <left_val>0.4032570123672485</left_val>
            <right_val>-0.7343919873237610</right_val></_></_>
        <_>
          <!-- tree 2 -->
          <_>
            <!-- root node -->
            <feature>
              <rects>
                <_>
                  16 16 2 12 -1.</_>
                <_>
                  16 16 1 6 2.</_>
                <_>
                  17 22 1 6 2.</_></rects>
              <tilted>0</tilted></feature>
            <threshold>4.5873997732996941e-003</threshold>
            <left_node>1</left_node>
            <right_val>0.7544980049133301</right_val></_>
          <_>
            <!-- node 1 -->
            <feature>
              <rects>
                <_>
                  16 12 2 10 -1.</_>
                <_>
                  17 12 1 10 2.</_></rects>
              <tilted>0</tilted></feature>
            <threshold>6.7961900494992733e-003</threshold>
            <left_val>-0.4410671889781952</left_val>
            <right_val>0.3822103142738342</right_val></_></_>
        <_>
          <!-- tree 3 -->
          <_>
            <!-- root node -->
            <feature>
              <rects>
                <_>
                  9 10 3 8 -1.</_>
                <_>
                  9 14 3 4 2.</_></rects>
              <tilted>0</tilted></feature>
            <threshold>1.5573479468002915e-003</threshold>
            <left_node>1</left_node>
            <right_val>0.3309732973575592</right_val></_>
          <_>
            <!-- node 1 -->
            <feature>
              <rects>
                <_>
                  14 12 4 8 -1.</_>
                <_>
                  14 12 2 4 2.</_>
                <_>
                  16 16 2 4 2.</_></rects>
              <tilted>0</tilted></feature>
            <threshold>0.0141108697280288</threshold>
            <left_val>-0.6391910910606384</left_val>
            <right_val>0.7923672795295715</right_val></_></_>
        <_>
          <!-- tree 4 -->
          <_>
            <!-- root node -->
            <feature>
              <rects>
                <_>
                  0 21 4 8 -1.</_>
                <_>
                  0 21 2 4 2.</_>
                <_>
                  2 25 2 4 2.</_></rects>
              <tilted>0</tilted></feature>
            <threshold>-6.6040279343724251e-003</threshold>
            <left_val>0.5479871034622192</left_val>
            <right_node>1</right_node></_>
          <_>
            <!-- node 1 -->
            <feature>
              <rects>
                <_>
                  0 22 6 5 -1.</_>
                <_>
                  3 22 3 5 2.</_></rects>
              <tilted>0</tilted></feature>
            <threshold>-0.0292054694145918</threshold>
            <left_val>0.7374854087829590</left_val>
            <right_val>-0.4680232107639313</right_val></_></_>
        <_>
          <!-- tree 5 -->
          <_>
            <!-- root node -->
            <feature>
              <rects>
                <_>
                  5 28 3 2 -1.</_>
                <_>
                  5 29 3 1 2.</_></rects>
              <tilted>0</tilted></feature>
            <threshold>-7.8197440598160028e-004</threshold>
            <left_node>1</left_node>
            <right_val>-0.4408172070980072</right_val></_>
          <_>
            <!-- node 1 -->
            <feature>
              <rects>
                <_>
                  0 1 1 3 -1.</_>
                <_>
                  0 2 1 1 3.</_></rects>
              <tilted>0</tilted></feature>
            <threshold>1.7231640231329948e-004</threshold>
            <left_val>0.6606671214103699</left_val>
            <right_val>-0.3383443951606751</right_val></_></_>
        <_>
          <!-- tree 6 -->
          <_>
            <!-- root node -->
            <feature>
              <rects>
                <_>
                  10 14 1 6 -1.</_>
                <_>
                  10 16 1 2 3.</_></rects>
              <tilted>0</tilted></feature>
            <threshold>-4.1684448660816997e-005</threshold>
            <left_val>0.3704209923744202</left_val>
            <right_node>1</right_node></_>
          <_>
            <!-- node 1 -->
            <feature>
              <rects>
                <_>
                  7 0 3 12 -1.</_>
                <_>
                  8 0 1 12 3.</_></rects>
              <tilted>0</tilted></feature>
            <threshold>7.8558176755905151e-003</threshold>
            <left_val>-0.6622173190116882</left_val>
            <right_val>0.5755360126495361</right_val></_></_>
        <_>
          <!-- tree 7 -->
          <_>
            <!-- root node -->
            <feature>
              <rects>
                <_>
                  16 12 2 17 -1.</_>
                <_>
                  17 12 1 17 2.</_></rects>
              <tilted>0</tilted></feature>
            <threshold>-7.6779429800808430e-003</threshold>
            <left_val>0.5786945223808289</left_val>
            <right_node>1</right_node></_>
          <_>
            <!-- node 1 -->
            <feature>
              <rects>
                <_>
                  4 0 12 4 -1.</_>
                <_>
                  4 2 12 2 2.</_></rects>
              <tilted>0</tilted></feature>
            <threshold>-0.0186845008283854</threshold>
            <left_val>0.3372024893760681</left_val>
            <right_val>-0.6588748097419739</right_val></_></_>
        <_>
          <!-- tree 8 -->
          <_>
            <!-- root node -->
            <feature>
              <rects>
                <_>
                  7 1 3 4 -1.</_>
                <_>
                  8 1 1 4 3.</_></rects>
              <tilted>0</tilted></feature>
            <threshold>-4.0701958350837231e-003</threshold>
            <left_val>0.6535702943801880</left_val>
            <right_node>1</right_node></_>
          <_>
            <!-- node 1 -->
            <feature>
              <rects>
                <_>
                  5 2 6 2 -1.</_>
                <_>
                  7 2 2 2 3.</_></rects>
              <tilted>0</tilted></feature>
            <threshold>6.7385300062596798e-003</threshold>
            <left_val>-0.5254089236259460</left_val>
            <right_val>0.4421077072620392</right_val></_></_>
        <_>
          <!-- tree 9 -->
          <_>
            <!-- root node -->
            <feature>
              <rects>
                <_>
                  7 26 3 2 -1.</_>
                <_>
                  7 27 3 1 2.</_></rects>
              <tilted>0</tilted></feature>
            <threshold>-2.4308169668074697e-004</threshold>
            <left_node>1</left_node>
            <right_val>-0.5506594181060791</right_val></_>
          <_>
            <!-- node 1 -->
            <feature>
              <rects>
                <_>
                  6 5 8 8 -1.</_>
                <_>
                  6 7 8 4 2.</_></rects>
              <tilted>0</tilted></feature>
            <threshold>-0.0145984701812267</threshold>
            <left_val>-0.8349221944808960</left_val>
            <right_val>0.4681662023067474</right_val></_></_>
        <_>
          <!-- tree 10 -->
          <_>
            <!-- root node -->
            <feature>
              <rects>
                <_>
                  12 12 4 2 -1.</_>
                <_>
                  13 12 2 2 2.</_></rects>
              <tilted>0</tilted></feature>
            <threshold>-1.6076200408861041e-003</threshold>
            <left_val>0.4988940954208374</left_val>
            <right_node>1</right_node></_>
          <_>
            <!-- node 1 -->
            <feature>
              <rects>
                <_>
                  0 12 2 10 -1.</_>
                <_>
                  0 12 1 5 2.</_>
                <_>
                  1 17 1 5 2.</_></rects>
              <tilted>0</tilted></feature>
            <threshold>6.5096770413219929e-003</threshold>
            <left_val>-0.5221183896064758</left_val>
            <right_val>0.5133721232414246</right_val></_></_></trees>
      <stage_threshold>-1.8540660142898560</stage_threshold>
      <parent>6</parent>
      <next>-1</next></_>
    <_>
      <!-- stage 8 -->
      <trees>
        <_>
          <!-- tree 0 -->
          <_>
            <!-- root node -->
            <feature>
              <rects>
                <_>
                  10 15 3 15 -1.</_>
                <_>
                  10 20 3 5 3.</_></rects>
              <tilted>0</tilted></feature>
            <threshold>2.0239310106262565e-004</threshold>
            <left_node>1</left_node>
            <right_val>0.6074674725532532</right_val></_>
          <_>
            <!-- node 1 -->
            <feature>
              <rects>
                <_>
                  12 24 4 6 -1.</_>
                <_>
                  12 24 2 3 2.</_>
                <_>
                  14 27 2 3 2.</_></rects>
              <tilted>0</tilted></feature>
            <threshold>-9.1949403285980225e-003</threshold>
            <left_val>1.</left_val>
            <right_val>-0.5966700911521912</right_val></_></_>
        <_>
          <!-- tree 1 -->
          <_>
            <!-- root node -->
            <feature>
              <rects>
                <_>
                  6 4 5 12 -1.</_>
                <_>
                  6 7 5 6 2.</_></rects>
              <tilted>0</tilted></feature>
            <threshold>-2.1107720385771245e-005</threshold>
            <left_node>1</left_node>
            <right_val>-0.9036216735839844</right_val></_>
          <_>
            <!-- node 1 -->
            <feature>
              <rects>
                <_>
                  7 15 2 1 -1.</_>
                <_>
                  8 15 1 1 2.</_></rects>
              <tilted>0</tilted></feature>
            <threshold>4.9141061026602983e-004</threshold>
            <left_val>0.5888714194297791</left_val>
            <right_val>-0.6993306279182434</right_val></_></_>
        <_>
          <!-- tree 2 -->
          <_>
            <!-- root node -->
            <feature>
              <rects>
                <_>
                  8 8 3 4 -1.</_>
                <_>
                  8 9 3 2 2.</_></rects>
              <tilted>0</tilted></feature>
            <threshold>3.8442431105067953e-005</threshold>
            <left_node>1</left_node>
            <right_val>0.4164218902587891</right_val></_>
          <_>
            <!-- node 1 -->
            <feature>
              <rects>
                <_>
                  7 10 3 4 -1.</_>
                <_>
                  7 11 3 2 2.</_></rects>
              <tilted>0</tilted></feature>
            <threshold>6.2095001339912415e-004</threshold>
            <left_val>-0.6632205843925476</left_val>
            <right_val>0.6663525104522705</right_val></_></_>
        <_>
          <!-- tree 3 -->
          <_>
            <!-- root node -->
            <feature>
              <rects>
                <_>
                  4 17 6 9 -1.</_>
                <_>
                  4 20 6 3 3.</_></rects>
              <tilted>0</tilted></feature>
            <threshold>1.8976559658767655e-005</threshold>
            <left_node>1</left_node>
            <right_val>0.3018867969512940</right_val></_>
          <_>
            <!-- node 1 -->
            <feature>
              <rects>
                <_>
                  9 1 6 6 -1.</_>
                <_>
                  11 3 2 2 9.</_></rects>
              <tilted>0</tilted></feature>
            <threshold>0.0347408913075924</threshold>
            <left_val>-0.6435788273811340</left_val>
            <right_val>0.8609058856964111</right_val></_></_>
        <_>
          <!-- tree 4 -->
          <_>
            <!-- root node -->
            <feature>
              <rects>
                <_>
                  6 14 5 16 -1.</_>
                <_>
                  6 22 5 8 2.</_></rects>
              <tilted>0</tilted></feature>
            <threshold>-2.2483420252683572e-005</threshold>
            <left_node>1</left_node>
            <right_val>-0.9156600236892700</right_val></_>
          <_>
            <!-- node 1 -->
            <feature>
              <rects>
                <_>
                  5 13 9 12 -1.</_>
                <_>
                  8 17 3 4 9.</_></rects>
              <tilted>0</tilted></feature>
            <threshold>0.0390399098396301</threshold>
            <left_val>0.5607311725616455</left_val>
            <right_val>-0.5976415276527405</right_val></_></_>
        <_>
          <!-- tree 5 -->
          <_>
            <!-- root node -->
            <feature>
              <rects>
                <_>
                  6 26 3 4 -1.</_>
                <_>
                  6 27 3 2 2.</_></rects>
              <tilted>0</tilted></feature>
            <threshold>7.1160917286761105e-005</threshold>
            <left_node>1</left_node>
            <right_val>0.5364837050437927</right_val></_>
          <_>
            <!-- node 1 -->
            <feature>
              <rects>
                <_>
                  4 21 2 9 -1.</_>
                <_>
                  4 24 2 3 3.</_></rects>
              <tilted>0</tilted></feature>
            <threshold>-4.0889610536396503e-003</threshold>
            <left_val>0.8282083272933960</left_val>
            <right_val>-0.5722330212593079</right_val></_></_>
        <_>
          <!-- tree 6 -->
          <_>
            <!-- root node -->
            <feature>
              <rects>
                <_>
                  3 17 7 6 -1.</_>
                <_>
                  3 20 7 3 2.</_></rects>
              <tilted>0</tilted></feature>
            <threshold>4.7521818487439305e-005</threshold>
            <left_node>1</left_node>
            <right_val>0.2852419018745422</right_val></_>
          <_>
            <!-- node 1 -->
            <feature>
              <rects>
                <_>
                  1 13 4 4 -1.</_>
                <_>
                  1 13 2 2 2.</_>
                <_>
                  3 15 2 2 2.</_></rects>
              <tilted>0</tilted></feature>
            <threshold>2.3818749468773603e-003</threshold>
            <left_val>-0.7458968758583069</left_val>
            <right_val>0.5059037804603577</right_val></_></_>
        <_>
          <!-- tree 7 -->
          <_>
            <!-- root node -->
            <feature>
              <rects>
                <_>
                  0 13 4 12 -1.</_>
                <_>
                  0 13 2 6 2.</_>
                <_>
                  2 19 2 6 2.</_></rects>
              <tilted>0</tilted></feature>
            <threshold>3.1035880092531443e-003</threshold>
            <left_node>1</left_node>
            <right_val>0.3290253877639771</right_val></_>
          <_>
            <!-- node 1 -->
            <feature>
              <rects>
                <_>
                  2 7 3 8 -1.</_>
                <_>
                  3 7 1 8 3.</_></rects>
              <tilted>0</tilted></feature>
            <threshold>0.0132683198899031</threshold>
            <left_val>-0.6216518878936768</left_val>
            <right_val>1.</right_val></_></_>
        <_>
          <!-- tree 8 -->
          <_>
            <!-- root node -->
            <feature>
              <rects>
                <_>
                  9 26 1 2 -1.</_>
                <_>
                  9 27 1 1 2.</_></rects>
              <tilted>0</tilted></feature>
            <threshold>-1.7235059203812853e-005</threshold>
            <left_val>0.0945400223135948</left_val>
            <right_node>1</right_node></_>
          <_>
            <!-- node 1 -->
            <feature>
              <rects>
                <_>
                  13 2 3 17 -1.</_>
                <_>
                  14 2 1 17 3.</_></rects>
              <tilted>0</tilted></feature>
            <threshold>-0.0151574201881886</threshold>
            <left_val>0.8727980852127075</left_val>
            <right_val>-0.9900364279747009</right_val></_></_>
        <_>
          <!-- tree 9 -->
          <_>
            <!-- root node -->
            <feature>
              <rects>
                <_>
                  7 12 6 6 -1.</_>
                <_>
                  9 14 2 2 9.</_></rects>
              <tilted>0</tilted></feature>
            <threshold>1.8474360331310891e-005</threshold>
            <left_node>1</left_node>
            <right_val>0.3459359109401703</right_val></_>
          <_>
            <!-- node 1 -->
            <feature>
              <rects>
                <_>
                  7 13 6 4 -1.</_>
                <_>
                  9 13 2 4 3.</_></rects>
              <tilted>0</tilted></feature>
            <threshold>-5.1620109006762505e-003</threshold>
            <left_val>-0.7678956985473633</left_val>
            <right_val>0.6120253801345825</right_val></_></_>
        <_>
          <!-- tree 10 -->
          <_>
            <!-- root node -->
            <feature>
              <rects>
                <_>
                  2 8 10 2 -1.</_>
                <_>
                  7 8 5 2 2.</_></rects>
              <tilted>0</tilted></feature>
            <threshold>-6.7468521592672914e-005</threshold>
            <left_val>0.3058069050312042</left_val>
            <right_node>1</right_node></_>
          <_>
            <!-- node 1 -->
            <feature>
              <rects>
                <_>
                  2 4 1 16 -1.</_>
                <_>
                  2 12 1 8 2.</_></rects>
              <tilted>0</tilted></feature>
            <threshold>0.0173106808215380</threshold>
            <left_val>-0.9682198762893677</left_val>
            <right_val>0.6892622709274292</right_val></_></_>
        <_>
          <!-- tree 11 -->
          <_>
            <!-- root node -->
            <feature>
              <rects>
                <_>
                  11 0 2 12 -1.</_>
                <_>
                  11 6 2 6 2.</_></rects>
              <tilted>0</tilted></feature>
            <threshold>-0.0137211000546813</threshold>
            <left_val>0.6636909842491150</left_val>
            <right_node>1</right_node></_>
          <_>
            <!-- node 1 -->
            <feature>
              <rects>
                <_>
                  14 20 4 8 -1.</_>
                <_>
                  16 20 2 8 2.</_></rects>
              <tilted>0</tilted></feature>
            <threshold>-0.0216472502797842</threshold>
            <left_val>0.6914684176445007</left_val>
            <right_val>-0.9838600158691406</right_val></_></_>
        <_>
          <!-- tree 12 -->
          <_>
            <!-- root node -->
            <feature>
              <rects>
                <_>
                  7 20 2 9 -1.</_>
                <_>
                  7 23 2 3 3.</_></rects>
              <tilted>0</tilted></feature>
            <threshold>2.0668849174398929e-005</threshold>
            <left_node>1</left_node>
            <right_val>0.5046967267990112</right_val></_>
          <_>
            <!-- node 1 -->
            <feature>
              <rects>
                <_>
                  5 23 2 7 -1.</_>
                <_>
                  6 23 1 7 2.</_></rects>
              <tilted>0</tilted></feature>
            <threshold>-1.9466000376269221e-003</threshold>
            <left_val>0.9556112885475159</left_val>
            <right_val>-0.7830396294593811</right_val></_></_>
        <_>
          <!-- tree 13 -->
          <_>
            <!-- root node -->
            <feature>
              <rects>
                <_>
                  9 14 1 6 -1.</_>
                <_>
                  9 16 1 2 3.</_></rects>
              <tilted>0</tilted></feature>
            <threshold>-1.4609239769924898e-005</threshold>
            <left_node>1</left_node>
            <right_val>-0.9864426255226135</right_val></_>
          <_>
            <!-- node 1 -->
            <feature>
              <rects>
                <_>
                  8 20 6 1 -1.</_>
                <_>
                  10 20 2 1 3.</_></rects>
              <tilted>0</tilted></feature>
            <threshold>-1.0461580241099000e-003</threshold>
            <left_val>-0.8336135149002075</left_val>
            <right_val>0.7328618168830872</right_val></_></_>
        <_>
          <!-- tree 14 -->
          <_>
            <!-- root node -->
            <feature>
              <rects>
                <_>
                  11 24 1 4 -1.</_>
                <_>
                  11 26 1 2 2.</_></rects>
              <tilted>0</tilted></feature>
            <threshold>-1.3971590306027792e-005</threshold>
            <left_val>0.5208262205123901</left_val>
            <right_node>1</right_node></_>
          <_>
            <!-- node 1 -->
            <feature>
              <rects>
                <_>
                  9 6 1 12 -1.</_>
                <_>
                  9 10 1 4 3.</_></rects>
              <tilted>0</tilted></feature>
            <threshold>2.6911600798484869e-005</threshold>
            <left_val>-0.9877408742904663</left_val>
            <right_val>0.5786396265029907</right_val></_></_>
        <_>
          <!-- tree 15 -->
          <_>
            <!-- root node -->
            <feature>
              <rects>
                <_>
                  8 1 3 5 -1.</_>
                <_>
                  9 1 1 5 3.</_></rects>
              <tilted>0</tilted></feature>
            <threshold>2.2630679886788130e-003</threshold>
            <left_node>1</left_node>
            <right_val>0.6585602164268494</right_val></_>
          <_>
            <!-- node 1 -->
            <feature>
              <rects>
                <_>
                  15 14 3 2 -1.</_>
                <_>
                  16 14 1 2 3.</_></rects>
              <tilted>0</tilted></feature>
            <threshold>-2.6909210719168186e-003</threshold>
            <left_val>0.4810656905174255</left_val>
            <right_val>-0.7687457203865051</right_val></_></_>
        <_>
          <!-- tree 16 -->
          <_>
            <!-- root node -->
            <feature>
              <rects>
                <_>
                  13 14 2 2 -1.</_>
                <_>
                  13 14 1 1 2.</_>
                <_>
                  14 15 1 1 2.</_></rects>
              <tilted>0</tilted></feature>
            <threshold>4.7824811190366745e-005</threshold>
            <left_val>-0.9979627132415772</left_val>
            <right_node>1</right_node></_>
          <_>
            <!-- node 1 -->
            <feature>
              <rects>
                <_>
                  6 8 10 6 -1.</_>
                <_>
                  6 11 10 3 2.</_></rects>
              <tilted>0</tilted></feature>
            <threshold>-8.7565847206860781e-004</threshold>
            <left_val>1.</left_val>
            <right_val>-1.</right_val></_></_>
        <_>
          <!-- tree 17 -->
          <_>
            <!-- root node -->
            <feature>
              <rects>
                <_>
                  7 27 3 2 -1.</_>
                <_>
                  7 28 3 1 2.</_></rects>
              <tilted>0</tilted></feature>
            <threshold>-1.3693559594685212e-005</threshold>
            <left_val>0.7388458251953125</left_val>
            <right_node>1</right_node></_>
          <_>
            <!-- node 1 -->
            <feature>
              <rects>
                <_>
                  8 16 6 8 -1.</_>
                <_>
                  8 16 3 4 2.</_>
                <_>
                  11 20 3 4 2.</_></rects>
              <tilted>0</tilted></feature>
            <threshold>6.1036756960675120e-005</threshold>
            <left_val>-0.9991685748100281</left_val>
            <right_val>0.8638892173767090</right_val></_></_>
        <_>
          <!-- tree 18 -->
          <_>
            <!-- root node -->
            <feature>
              <rects>
                <_>
                  13 12 2 6 -1.</_>
                <_>
                  13 12 1 3 2.</_>
                <_>
                  14 15 1 3 2.</_></rects>
              <tilted>0</tilted></feature>
            <threshold>-4.3395198881626129e-003</threshold>
            <left_val>0.7564731240272522</left_val>
            <right_node>1</right_node></_>
          <_>
            <!-- node 1 -->
            <feature>
              <rects>
                <_>
                  16 15 1 15 -1.</_>
                <_>
                  16 20 1 5 3.</_></rects>
              <tilted>0</tilted></feature>
            <threshold>-4.8191840760409832e-003</threshold>
            <left_val>1.</left_val>
            <right_val>-0.9987692236900330</right_val></_></_>
        <_>
          <!-- tree 19 -->
          <_>
            <!-- root node -->
            <feature>
              <rects>
                <_>
                  6 17 2 12 -1.</_>
                <_>
                  6 20 2 6 2.</_></rects>
              <tilted>0</tilted></feature>
            <threshold>1.4609239769924898e-005</threshold>
            <left_node>1</left_node>
            <right_val>0.6844102740287781</right_val></_>
          <_>
            <!-- node 1 -->
            <feature>
              <rects>
                <_>
                  1 14 14 8 -1.</_>
                <_>
                  1 18 14 4 2.</_></rects>
              <tilted>0</tilted></feature>
            <threshold>-0.0132919996976852</threshold>
            <left_val>-0.8847740888595581</left_val>
            <right_val>0.8819078207015991</right_val></_></_>
        <_>
          <!-- tree 20 -->
          <_>
            <!-- root node -->
            <feature>
              <rects>
                <_>
                  1 2 16 14 -1.</_>
                <_>
                  1 2 8 7 2.</_>
                <_>
                  9 9 8 7 2.</_></rects>
              <tilted>0</tilted></feature>
            <threshold>0.0253355000168085</threshold>
            <left_val>-0.9967377185821533</left_val>
            <right_node>1</right_node></_>
          <_>
            <!-- node 1 -->
            <feature>
              <rects>
                <_>
                  2 19 3 8 -1.</_>
                <_>
                  2 23 3 4 2.</_></rects>
              <tilted>0</tilted></feature>
            <threshold>-2.2653660562355071e-004</threshold>
            <left_val>0.8638241291046143</left_val>
            <right_val>-0.9992465972900391</right_val></_></_>
        <_>
          <!-- tree 21 -->
          <_>
            <!-- root node -->
            <feature>
              <rects>
                <_>
                  9 24 1 6 -1.</_>
                <_>
                  9 27 1 3 2.</_></rects>
              <tilted>0</tilted></feature>
            <threshold>-2.1721929442719556e-005</threshold>
            <left_val>0.6855146884918213</left_val>
            <right_node>1</right_node></_>
          <_>
            <!-- node 1 -->
            <feature>
              <rects>
                <_>
                  6 23 8 6 -1.</_>
                <_>
                  10 23 4 6 2.</_></rects>
              <tilted>0</tilted></feature>
            <threshold>2.9281289243954234e-005</threshold>
            <left_val>-1.</left_val>
            <right_val>0.9000188708305359</right_val></_></_>
        <_>
          <!-- tree 22 -->
          <_>
            <!-- root node -->
            <feature>
              <rects>
                <_>
                  1 5 3 12 -1.</_>
                <_>
                  2 9 1 4 9.</_></rects>
              <tilted>0</tilted></feature>
            <threshold>0.0235497504472733</threshold>
            <left_node>1</left_node>
            <right_val>0.8206750750541687</right_val></_>
          <_>
            <!-- node 1 -->
            <feature>
              <rects>
                <_>
                  13 16 3 4 -1.</_>
                <_>
                  13 17 3 2 2.</_></rects>
              <tilted>0</tilted></feature>
            <threshold>-2.2935420274734497e-003</threshold>
            <left_val>0.8144155740737915</left_val>
            <right_val>-0.9659879803657532</right_val></_></_>
        <_>
          <!-- tree 23 -->
          <_>
            <!-- root node -->
            <feature>
              <rects>
                <_>
                  0 0 2 1 -1.</_>
                <_>
                  1 0 1 1 2.</_></rects>
              <tilted>0</tilted></feature>
            <threshold>0.</threshold>
            <left_val>0.</left_val>
            <right_val>-1.</right_val></_></_>
        <_>
          <!-- tree 24 -->
          <_>
            <!-- root node -->
            <feature>
              <rects>
                <_>
                  6 17 2 12 -1.</_>
                <_>
                  6 20 2 6 2.</_></rects>
              <tilted>0</tilted></feature>
            <threshold>1.2240529758855700e-004</threshold>
            <left_node>1</left_node>
            <right_val>0.9104030132293701</right_val></_>
          <_>
            <!-- node 1 -->
            <feature>
              <rects>
                <_>
                  10 16 6 10 -1.</_>
                <_>
                  10 16 3 5 2.</_>
                <_>
                  13 21 3 5 2.</_></rects>
              <tilted>0</tilted></feature>
            <threshold>5.0153927877545357e-003</threshold>
            <left_val>1.</left_val>
            <right_val>-1.0000009536743164</right_val></_></_>
        <_>
          <!-- tree 25 -->
          <_>
            <!-- root node -->
            <feature>
              <rects>
                <_>
                  0 0 2 1 -1.</_>
                <_>
                  1 0 1 1 2.</_></rects>
              <tilted>0</tilted></feature>
            <threshold>0.</threshold>
            <left_val>0.</left_val>
            <right_val>-1.</right_val></_></_>
        <_>
          <!-- tree 26 -->
          <_>
            <!-- root node -->
            <feature>
              <rects>
                <_>
                  6 23 7 6 -1.</_>
                <_>
                  6 26 7 3 2.</_></rects>
              <tilted>0</tilted></feature>
            <threshold>-4.2424089770065621e-005</threshold>
            <left_node>1</left_node>
            <right_val>-0.9887149930000305</right_val></_>
          <_>
            <!-- node 1 -->
            <feature>
              <rects>
                <_>
                  0 0 2 1 -1.</_>
                <_>
                  1 0 1 1 2.</_></rects>
              <tilted>0</tilted></feature>
            <threshold>-4.4525750126922503e-005</threshold>
            <left_val>-0.5634763836860657</left_val>
            <right_val>0.9810166954994202</right_val></_></_></trees>
      <stage_threshold>-1.1971830129623413</stage_threshold>
      <parent>7</parent>
      <next>-1</next></_>
    <_>
      <!-- stage 9 -->
      <trees>
        <_>
          <!-- tree 0 -->
          <_>
            <!-- root node -->
            <feature>
              <rects>
                <_>
                  7 24 2 3 -1.</_>
                <_>
                  7 25 2 1 3.</_></rects>
              <tilted>0</tilted></feature>
            <threshold>-6.7518209107220173e-004</threshold>
            <left_val>-0.8789154291152954</left_val>
            <right_node>1</right_node></_>
          <_>
            <!-- node 1 -->
            <feature>
              <rects>
                <_>
                  7 24 2 3 -1.</_>
                <_>
                  7 25 2 1 3.</_></rects>
              <tilted>0</tilted></feature>
            <threshold>9.4800989609211683e-004</threshold>
            <left_val>0.3649025857448578</left_val>
            <right_val>-0.7611548900604248</right_val></_></_>
        <_>
          <!-- tree 1 -->
          <_>
            <!-- root node -->
            <feature>
              <rects>
                <_>
                  5 0 8 2 -1.</_>
                <_>
                  5 1 8 1 2.</_></rects>
              <tilted>0</tilted></feature>
            <threshold>-2.7880109846591949e-003</threshold>
            <left_val>0.4480858147144318</left_val>
            <right_node>1</right_node></_>
          <_>
            <!-- node 1 -->
            <feature>
              <rects>
                <_>
                  2 1 1 20 -1.</_>
                <_>
                  2 11 1 10 2.</_></rects>
              <tilted>0</tilted></feature>
            <threshold>0.0216367803514004</threshold>
            <left_val>-0.5591806769371033</left_val>
            <right_val>0.6262385845184326</right_val></_></_>
        <_>
          <!-- tree 2 -->
          <_>
            <!-- root node -->
            <feature>
              <rects>
                <_>
                  13 27 1 2 -1.</_>
                <_>
                  13 28 1 1 2.</_></rects>
              <tilted>0</tilted></feature>
            <threshold>-1.6101310029625893e-004</threshold>
            <left_node>1</left_node>
            <right_val>-0.4745359122753143</right_val></_>
          <_>
            <!-- node 1 -->
            <feature>
              <rects>
                <_>
                  5 6 9 4 -1.</_>
                <_>
                  5 7 9 2 2.</_></rects>
              <tilted>0</tilted></feature>
            <threshold>4.0355748496949673e-003</threshold>
            <left_val>0.5119954943656921</left_val>
            <right_val>-0.8226389884948731</right_val></_></_>
        <_>
          <!-- tree 3 -->
          <_>
            <!-- root node -->
            <feature>
              <rects>
                <_>
                  0 2 10 23 -1.</_>
                <_>
                  5 2 5 23 2.</_></rects>
              <tilted>0</tilted></feature>
            <threshold>-0.0868308097124100</threshold>
            <left_val>0.4178883135318756</left_val>
            <right_node>1</right_node></_>
          <_>
            <!-- node 1 -->
            <feature>
              <rects>
                <_>
                  0 26 10 4 -1.</_>
                <_>
                  5 26 5 4 2.</_></rects>
              <tilted>0</tilted></feature>
            <threshold>0.0305396206676960</threshold>
            <left_val>-0.6612892150878906</left_val>
            <right_val>0.4258162081241608</right_val></_></_>
        <_>
          <!-- tree 4 -->
          <_>
            <!-- root node -->
            <feature>
              <rects>
                <_>
                  7 8 3 4 -1.</_>
                <_>
                  7 9 3 2 2.</_></rects>
              <tilted>0</tilted></feature>
            <threshold>1.5414560039062053e-005</threshold>
            <left_val>-0.5390287041664124</left_val>
            <right_node>1</right_node></_>
          <_>
            <!-- node 1 -->
            <feature>
              <rects>
                <_>
                  7 11 4 4 -1.</_>
                <_>
                  7 13 4 2 2.</_></rects>
              <tilted>0</tilted></feature>
            <threshold>1.4536520466208458e-003</threshold>
            <left_val>-0.4039329886436462</left_val>
            <right_val>0.6206846833229065</right_val></_></_>
        <_>
          <!-- tree 5 -->
          <_>
            <!-- root node -->
            <feature>
              <rects>
                <_>
                  5 4 4 5 -1.</_>
                <_>
                  6 4 2 5 2.</_></rects>
              <tilted>0</tilted></feature>
            <threshold>7.0507582277059555e-003</threshold>
            <left_node>1</left_node>
            <right_val>0.6973425745964050</right_val></_>
          <_>
            <!-- node 1 -->
            <feature>
              <rects>
                <_>
                  0 12 2 18 -1.</_>
                <_>
                  0 12 1 9 2.</_>
                <_>
                  1 21 1 9 2.</_></rects>
              <tilted>0</tilted></feature>
            <threshold>-6.9072721526026726e-003</threshold>
            <left_val>0.5912278890609741</left_val>
            <right_val>-0.3443515896797180</right_val></_></_>
        <_>
          <!-- tree 6 -->
          <_>
            <!-- root node -->
            <feature>
              <rects>
                <_>
                  10 25 2 2 -1.</_>
                <_>
                  10 26 2 1 2.</_></rects>
              <tilted>0</tilted></feature>
            <threshold>-2.8860169550171122e-005</threshold>
            <left_node>1</left_node>
            <right_val>-0.6701235771179199</right_val></_>
          <_>
            <!-- node 1 -->
            <feature>
              <rects>
                <_>
                  7 19 4 1 -1.</_>
                <_>
                  8 19 2 1 2.</_></rects>
              <tilted>0</tilted></feature>
            <threshold>9.1819622321054339e-004</threshold>
            <left_val>0.4238576889038086</left_val>
            <right_val>-0.7796810269355774</right_val></_></_>
        <_>
          <!-- tree 7 -->
          <_>
            <!-- root node -->
            <feature>
              <rects>
                <_>
                  7 5 4 12 -1.</_>
                <_>
                  7 8 4 6 2.</_></rects>
              <tilted>0</tilted></feature>
            <threshold>-2.1495259716175497e-005</threshold>
            <left_node>1</left_node>
            <right_val>-0.5424137711524963</right_val></_>
          <_>
            <!-- node 1 -->
            <feature>
              <rects>
                <_>
                  6 23 5 3 -1.</_>
                <_>
                  6 24 5 1 3.</_></rects>
              <tilted>0</tilted></feature>
            <threshold>-1.6969610005617142e-003</threshold>
            <left_val>-0.9050605297088623</left_val>
            <right_val>0.3817048072814941</right_val></_></_>
        <_>
          <!-- tree 8 -->
          <_>
            <!-- root node -->
            <feature>
              <rects>
                <_>
                  13 11 4 2 -1.</_>
                <_>
                  14 11 2 2 2.</_></rects>
              <tilted>0</tilted></feature>
            <threshold>3.1029318924993277e-003</threshold>
            <left_node>1</left_node>
            <right_val>0.5803136825561523</right_val></_>
          <_>
            <!-- node 1 -->
            <feature>
              <rects>
                <_>
                  14 11 2 10 -1.</_>
                <_>
                  14 11 1 5 2.</_>
                <_>
                  15 16 1 5 2.</_></rects>
              <tilted>0</tilted></feature>
            <threshold>-3.2042199745774269e-003</threshold>
            <left_val>0.4101239144802094</left_val>
            <right_val>-0.4711000919342041</right_val></_></_>
        <_>
          <!-- tree 9 -->
          <_>
            <!-- root node -->
            <feature>
              <rects>
                <_>
                  7 27 2 2 -1.</_>
                <_>
                  7 28 2 1 2.</_></rects>
              <tilted>0</tilted></feature>
            <threshold>-1.4688899682369083e-005</threshold>
            <left_node>1</left_node>
            <right_val>-0.7082899808883667</right_val></_>
          <_>
            <!-- node 1 -->
            <feature>
              <rects>
                <_>
                  15 0 2 1 -1.</_>
                <_>
                  16 0 1 1 2.</_></rects>
              <tilted>0</tilted></feature>
            <threshold>-4.9106311053037643e-004</threshold>
            <left_val>-0.6127110123634338</left_val>
            <right_val>0.3379108905792236</right_val></_></_>
        <_>
          <!-- tree 10 -->
          <_>
            <!-- root node -->
            <feature>
              <rects>
                <_>
                  4 7 3 8 -1.</_>
                <_>
                  5 7 1 8 3.</_></rects>
              <tilted>0</tilted></feature>
            <threshold>5.3613111376762390e-003</threshold>
            <left_node>1</left_node>
            <right_val>0.5968977212905884</right_val></_>
          <_>
            <!-- node 1 -->
            <feature>
              <rects>
                <_>
                  0 1 18 8 -1.</_>
                <_>
                  0 5 18 4 2.</_></rects>
              <tilted>0</tilted></feature>
            <threshold>-0.0503773093223572</threshold>
            <left_val>0.3369997143745422</left_val>
            <right_val>-0.4766021072864533</right_val></_></_>
        <_>
          <!-- tree 11 -->
          <_>
            <!-- root node -->
            <feature>
              <rects>
                <_>
                  2 8 2 16 -1.</_>
                <_>
                  2 8 1 8 2.</_>
                <_>
                  3 16 1 8 2.</_></rects>
              <tilted>0</tilted></feature>
            <threshold>-6.8192607723176479e-003</threshold>
            <left_val>0.6215881705284119</left_val>
            <right_node>1</right_node></_>
